8212 50
</s> 0.008005 0.008839 -0.007661 -0.006556 0.002733 0.006042 0.001882 0.000423 -0.007207 0.004437 -0.008713 0.002499 -0.001503 -0.001914 -0.006631 -0.003764 0.005159 0.006051 0.005938 0.003195 0.003090 -0.007605 -0.008192 0.009939 0.007603 0.006180 -0.001208 0.008031 -0.000990 0.001469 -0.000298 -0.005966 0.002625 -0.002675 -0.007651 0.009508 0.008759 -0.002190 -0.000452 0.001018 -0.007275 -0.008014 0.009109 0.000126 -0.005165 -0.006084 -0.006153 0.003394 0.000403 0.002662 
w11 0.216359 -0.185166 0.694287 0.079089 -0.157337 -0.090891 0.543576 -0.271324 0.185357 -0.121091 0.309639 -0.385627 -0.656657 0.235743 0.274661 0.138530 0.005979 0.137903 0.236306 0.336848 -0.113624 0.098464 0.061192 -0.276636 0.182964 0.151095 0.004468 -0.264339 0.100313 -0.019892 -0.183597 -0.036489 -0.356246 -0.014218 0.097579 0.237048 0.690685 0.070329 0.028683 -0.168426 -0.254382 0.242233 -0.049827 -0.032806 0.112551 0.506201 -0.029394 -0.006772 -0.680401 -0.678726 
w111 0.222546 0.234488 0.401701 0.058248 -0.252846 0.185376 0.441477 0.008753 -0.124074 -0.230458 -0.124607 -0.148959 -0.738407 -0.046889 -0.030775 0.243384 0.141623 0.146233 0.083241 -0.099929 -0.039318 -0.127644 0.526807 -0.077837 0.082564 -0.054987 -0.005295 0.055404 -0.107035 -0.139395 -0.287999 0.190839 -0.056827 -0.404300 -0.231010 -0.102880 0.095334 -0.147463 0.218370 -0.336924 -0.158839 0.192089 -0.234470 0.200088 -0.025889 0.163258 0.055645 0.269286 -0.177555 0.105753 
w6 0.176017 -0.132652 0.569899 0.080173 -0.164536 0.080815 0.515100 -0.119705 0.185923 -0.196073 0.148568 -0.448787 -0.683728 0.131930 0.109098 0.172733 0.065373 0.134057 -0.038922 0.224128 -0.093189 -0.111870 0.263461 -0.304424 0.122930 0.168050 0.065340 -0.063975 0.069819 -0.103061 -0.262300 0.040271 -0.297244 -0.270910 0.158320 0.019014 0.598223 0.100457 -0.001917 -0.231158 -0.321107 0.248043 -0.036977 -0.126063 0.142305 0.300151 -0.068997 0.190756 -0.603434 -0.272045 
c184 -0.010111 -0.410644 0.258899 0.024799 0.155505 -0.005841 0.026874 -0.296887 0.240643 0.026854 0.176420 0.181371 -0.388144 -0.219418 -0.504843 0.061996 0.338363 -0.198037 0.121228 0.082969 -0.391276 0.012926 0.390810 0.078303 0.114203 -0.162069 -0.111146 -0.055482 -0.164607 -0.184555 0.101248 -0.360706 -0.420825 0.296606 0.312449 0.123580 0.002654 -0.128253 0.401819 -0.214638 -0.294690 0.062239 -0.263940 0.212269 0.079313 0.369046 -0.065177 0.233337 0.121648 -0.436465 
c11 0.093284 -0.250293 0.266740 -0.067592 0.300111 -0.156208 0.321919 -0.234922 0.089407 0.280728 -0.141763 0.440002 -0.415533 -0.634387 -0.366397 0.295454 0.478602 -0.275280 0.149045 -0.317729 -0.538081 -0.111766 0.741018 0.325851 -0.248813 -0.487415 -0.025568 0.139746 0.067858 -0.416507 -0.083906 -0.584576 -0.306166 0.112006 0.083209 0.296757 -0.228564 -0.136645 0.676819 -0.487979 -0.360018 0.187165 -0.686201 0.230588 -0.047677 0.216155 0.076109 0.447845 0.051257 -0.379963 
c17 0.074902 0.017737 0.364864 -0.119492 0.223721 -0.314887 0.384447 -0.411563 0.308290 0.272010 -0.282199 0.646071 -0.406325 -0.785192 -0.545637 0.452708 0.504605 -0.346539 0.198007 -0.328394 -0.512130 -0.076867 0.766860 0.197187 -0.238466 -0.447253 -0.004332 0.291149 -0.017367 -0.302989 -0.044020 -0.424762 -0.377483 0.150533 -0.107917 0.324562 -0.148318 -0.125802 0.632514 -0.372845 -0.127482 0.296753 -0.705953 0.260972 -0.098142 0.350119 0.285069 0.665624 -0.021938 -0.262805 
w54 0.105066 -0.337848 0.313591 -0.001983 -0.015077 0.052572 0.170583 -0.148436 0.427003 -0.154462 0.829186 -0.269161 -0.521969 0.119527 -0.046734 0.254652 -0.327680 -0.119488 0.155794 0.189537 0.224261 0.035131 0.103834 -0.336956 -0.104741 0.226927 -0.008736 -0.362289 -0.181058 -0.133509 -0.173199 0.117511 -0.599911 0.054766 0.117015 0.408667 0.652058 0.171369 0.142266 -0.503262 -0.007093 0.344677 -0.059418 -0.204131 0.385740 0.435420 -0.640880 -0.006808 -0.267790 -0.615753 
c769 -0.106464 -0.336390 0.370204 0.131186 0.260012 -0.088626 -0.028903 -0.473116 0.141078 0.411587 0.067104 0.670903 -0.591875 -0.295125 -0.669558 0.180272 0.379907 -0.282412 -0.201478 0.015987 -0.545284 0.095864 0.493132 -0.072261 0.124040 -0.280365 0.144627 0.125347 -0.077097 -0.171052 0.190434 -0.407145 -0.617739 0.459716 0.249210 0.146797 0.084630 -0.054484 0.588565 -0.085030 -0.258758 0.149874 -0.760716 0.109377 -0.137461 0.538208 0.138387 0.484208 0.203708 -0.364100 
c4 0.006423 -0.102972 0.240663 -0.155342 0.278560 -0.118999 0.300387 -0.280543 0.333421 0.357699 -0.164919 0.565159 -0.479897 -0.718234 -0.537604 0.201647 0.544235 -0.223107 -0.077053 -0.243208 -0.438575 -0.019959 0.825485 0.121634 -0.244353 -0.528723 0.149112 0.069960 0.106144 -0.401747 0.169540 -0.543433 -0.607489 0.232042 0.068373 0.202440 -0.203628 -0.094050 0.620548 -0.354512 -0.123472 0.273833 -0.699764 -0.006687 -0.062778 0.270459 0.132681 0.680167 -0.095827 -0.310670 
c57 0.084658 -0.115066 0.230172 -0.429166 0.274143 -0.158543 0.459653 -0.345771 0.109744 0.291440 -0.150856 0.558164 -0.536676 -0.736384 -0.184923 0.422468 0.235884 -0.488307 -0.010924 -0.348590 -0.515103 -0.142439 0.430643 0.056084 -0.480339 -0.355065 0.094811 -0.030190 0.076679 -0.199241 0.262623 -0.307205 -0.295291 0.160519 0.013611 0.301649 -0.104824 -0.014613 0.629906 -0.355853 -0.295274 0.278481 -0.657049 0.496326 -0.188501 0.608981 -0.032793 0.234109 0.155907 -0.221948 
w23 -0.066310 0.021804 0.405363 -0.162252 -0.020823 -0.214569 0.443947 -0.159815 0.149242 0.001648 0.273023 -0.046609 -0.507946 0.140487 -0.144914 0.133416 -0.151474 -0.159845 0.240623 0.189894 0.025164 -0.106349 0.101662 -0.025483 0.101401 0.125628 -0.139603 -0.176403 -0.143424 -0.086521 -0.152400 -0.045690 -0.257946 -0.248705 0.097527 0.349925 0.505954 0.226252 0.359122 -0.267416 -0.202804 0.170864 -0.091868 0.019567 0.091515 0.082099 -0.253211 0.130516 -0.423989 -0.206632 
c101 -0.192507 -0.520480 0.062493 -0.093026 0.245864 -0.070654 0.480849 -0.219723 0.525928 0.139004 0.028102 0.656187 -0.362759 -0.975229 -0.461813 0.201271 0.182538 -0.502803 0.224705 -0.411883 -0.005996 -0.129227 0.759353 0.031031 -0.161976 -0.042350 0.234282 0.393449 -0.122659 -0.214240 -0.626161 -0.425063 -0.321287 0.196054 -0.070958 0.103895 -0.178485 -0.082010 0.440380 -0.754204 0.124494 0.376335 -0.299950 -0.078387 0.148163 0.097562 -0.429667 0.663454 0.308931 -0.187073 
c85 -0.102488 0.245683 0.576196 -0.120388 0.397426 -0.419361 0.564415 -0.409887 0.492965 0.353836 -0.252807 0.565572 -0.437214 -0.562995 -0.477563 0.257721 0.468477 -0.397561 0.136183 -0.318263 -0.496799 0.067708 0.566237 0.060858 -0.239897 -0.384488 -0.018010 0.270696 -0.079049 -0.184911 0.304310 -0.221797 -0.539943 0.197175 -0.049891 0.512538 -0.127933 -0.160708 0.620629 -0.310604 -0.089304 0.230584 -0.790878 0.294493 -0.070125 0.250509 0.126883 0.802362 -0.041856 -0.299350 
w25 0.084657 -0.234473 0.646147 0.189145 -0.065688 0.412612 0.605601 -0.260508 0.081755 -0.178834 0.265921 -0.344062 -0.695824 0.231708 0.305260 0.235184 0.057415 0.102737 -0.212600 0.208203 -0.161477 0.003860 0.257736 -0.204131 0.102163 0.301469 0.221775 -0.020744 0.119179 -0.032741 -0.517051 0.237285 -0.195411 -0.254425 0.019500 -0.090243 0.328756 -0.167004 -0.027942 -0.180436 -0.269747 0.056472 -0.094740 0.105530 0.146068 0.345726 -0.054194 0.167167 -0.646289 -0.378118 
c38 -0.151402 -0.237663 0.470081 -0.076206 0.167491 -0.388276 0.461626 -0.536863 0.179127 0.124184 -0.071927 0.910527 -0.129668 -0.555132 -0.706205 0.278123 0.575872 -0.727237 0.311320 -0.166679 -0.547749 -0.186407 0.858877 0.216808 -0.531377 -0.239746 -0.124167 0.276465 -0.046783 -0.427481 -0.055876 -0.179691 -0.355191 0.253899 -0.007149 0.374115 -0.012800 -0.103427 0.728897 -0.228479 -0.208720 0.422544 -0.559431 0.355484 0.077003 0.360571 -0.185342 0.458195 -0.019176 -0.248810 
w109 0.198075 -0.100691 0.626119 0.011504 -0.468798 0.096645 0.563079 -0.288649 0.026179 -0.105646 0.112002 -0.326353 -0.668174 0.257516 0.258092 0.144531 0.120293 0.148732 0.042316 0.324098 0.007257 0.036206 0.291129 -0.269031 0.308909 0.198116 0.002353 -0.200698 0.156237 0.134254 -0.331465 0.097852 -0.286369 -0.199419 -0.115780 0.228207 0.528267 0.165202 -0.049594 -0.669286 -0.384528 -0.021634 0.113701 0.139410 0.158655 0.377994 0.032774 0.195488 -0.511513 -0.146693 
c2 0.172174 -0.012954 0.411453 -0.003444 0.240902 -0.102629 0.408020 -0.273329 0.128393 0.323485 -0.326084 0.536896 -0.470842 -0.711513 -0.304836 0.382000 0.552899 -0.196321 0.236848 -0.160907 -0.316547 -0.101082 0.553957 0.134652 -0.327529 -0.575155 0.208887 0.250570 -0.036177 -0.378398 0.034813 -0.231366 -0.353187 -0.146705 -0.108701 0.349348 -0.148861 -0.193536 0.659172 -0.220475 -0.462886 0.274880 -0.697976 0.282569 -0.273257 0.355252 0.187244 0.419342 0.024689 -0.263608 
c768 -0.235768 -0.315824 0.100905 -0.087211 0.354826 -0.337860 -0.017593 -0.508181 0.156953 0.291193 0.004214 0.440348 -0.492346 -0.453661 -0.392823 0.180066 0.393990 -0.096857 -0.335547 -0.118439 -0.552950 0.207232 0.415772 0.051116 0.108322 -0.258962 0.207995 0.028111 0.144199 -0.427779 -0.041563 -0.301871 -0.550242 0.331306 0.317444 0.261845 0.070141 0.098374 0.449627 -0.363143 -0.341674 0.040025 -0.853075 0.087062 -0.138173 0.608530 0.199212 0.470650 0.048096 -0.257123 
c37 -0.034053 -0.046790 0.422916 -0.054109 0.298394 -0.085630 0.487534 -0.261048 0.103266 0.134447 -0.349420 0.532760 -0.399945 -0.608910 -0.314872 0.276220 0.521595 -0.371702 0.092815 -0.265719 -0.453237 0.073606 0.800332 0.248414 -0.266281 -0.509179 0.106568 0.068664 0.187000 -0.400032 0.005794 -0.187302 -0.301660 0.001945 0.168402 0.247097 -0.101311 -0.196355 0.664098 -0.288787 -0.221676 0.133508 -0.647072 0.200680 -0.023721 0.278967 0.284572 0.677365 -0.111323 -0.175956 
c931 -0.294834 -0.262697 0.348986 0.457410 0.244094 -0.203016 -0.068253 -0.149747 0.452080 0.339031 0.005879 0.177678 -0.401396 -0.498903 -0.784623 0.138267 0.533041 -0.085300 -0.127960 -0.009556 -0.669874 0.021302 0.425440 -0.092143 0.161232 -0.264610 -0.172017 0.275149 -0.083409 -0.328172 0.246863 -0.342094 -0.863107 0.432110 0.294043 0.148607 0.212460 -0.039764 0.644899 -0.019294 -0.251909 0.237216 -0.892047 0.210971 -0.064727 0.349787 0.074036 0.654748 0.100625 -0.391637 
c518 0.299745 -0.134607 0.374653 0.058010 -0.661807 -0.155659 0.255500 -0.011617 0.137905 -0.215473 0.180639 -0.017174 -0.733370 -0.361374 -0.856526 0.011576 0.275431 -0.206570 0.102381 -0.068471 -0.337890 -0.040751 0.687997 0.331241 -0.083898 -0.266100 -0.767324 0.106024 -0.500579 -0.233127 0.001848 -0.374844 -0.231061 -0.297028 0.059802 -0.165155 -0.036735 -0.561400 0.479434 -0.059152 -0.296708 0.475381 -0.530794 0.162030 -0.145502 0.254189 -0.032939 0.595971 0.295287 0.113445 
c147 -0.704522 -1.162025 -0.084367 -0.336200 -0.179702 0.345528 1.024091 -0.514467 1.243139 -0.068684 0.297758 0.988593 -1.226413 -1.352127 -0.707331 0.835066 -0.158363 0.077098 0.267243 -0.150191 0.271007 -0.265865 0.894525 -0.141031 -0.040422 -0.060586 0.517534 0.486576 -0.202108 -0.197496 -0.662413 -0.345098 -0.514931 0.349074 -0.081906 0.453676 0.209752 -0.177965 0.404101 -1.181762 0.061872 0.628891 0.278362 -0.726074 -0.098745 -0.024982 -1.231654 0.757362 0.113826 0.301704 
c131 -0.067580 -0.103719 0.394112 -0.107930 0.195262 -0.141325 0.302576 -0.280774 0.296655 0.231896 -0.382434 0.592598 -0.235473 -0.695503 -0.394734 0.400912 0.407570 -0.461477 0.303836 -0.258831 -0.331229 -0.050818 0.771853 0.110453 -0.332088 -0.469876 -0.015185 0.342857 -0.030871 -0.258728 0.069565 -0.230521 -0.466331 0.262808 -0.136425 0.238875 -0.009648 -0.130638 0.672017 -0.224725 -0.140289 0.207785 -0.718660 0.277688 -0.038100 0.241063 0.048587 0.726795 -0.210951 -0.394110 
c855 -0.120499 0.170207 0.765859 0.140284 0.320947 -0.297933 0.286012 -0.249587 0.337118 0.462548 -0.120200 0.623182 -0.497559 -0.431453 -0.682146 0.365409 0.408812 -0.517418 0.286975 -0.207579 -0.441378 0.005228 0.762698 -0.160998 -0.213265 -0.540903 0.166780 0.451757 -0.135644 -0.463582 0.134498 -0.048029 -0.359320 0.179611 -0.162165 0.394909 0.115183 -0.266540 0.568412 0.096030 -0.113449 0.356633 -0.693434 0.370894 -0.240689 0.245538 0.006698 0.590914 -0.263960 -0.403099 
w72 -0.014813 -0.005418 0.701006 -0.020796 0.084132 -0.149295 0.463714 -0.229131 0.340721 0.021036 0.238105 -0.268021 -0.532271 0.179267 0.069610 0.179025 -0.046236 -0.085532 0.299315 0.313305 0.013511 0.000372 0.192737 -0.254018 0.029137 0.064467 -0.085319 -0.196540 0.066743 0.027461 -0.121637 0.079828 -0.342636 0.064207 0.002198 0.312615 0.653865 0.052923 0.153610 -0.105520 -0.172543 0.114187 -0.019727 -0.022973 0.030031 0.321858 -0.193086 0.069878 -0.645268 -0.462191 
c324 0.189587 0.101456 0.438202 0.028726 0.206708 0.069113 0.461159 -0.085664 0.105028 0.206468 -0.169670 0.508979 -0.462226 -0.665997 -0.184729 0.366078 0.455443 -0.163782 0.137059 -0.441205 -0.188851 -0.011024 0.673306 0.049928 -0.125119 -0.350652 0.022557 0.065876 0.027110 -0.415331 -0.069618 -0.361320 -0.292970 0.044020 -0.261361 0.020357 -0.240777 -0.178018 0.587575 -0.382797 -0.066093 0.113775 -0.719982 0.191604 -0.191344 0.314822 0.245065 0.386750 -0.155597 -0.042501 
c151 -0.574591 -0.703424 -0.159693 -0.176782 -0.210682 0.806301 0.590619 -0.615917 0.546101 0.009643 -0.303156 0.658378 -0.890491 -1.313384 -0.630493 0.395413 0.041083 0.190647 0.988122 -0.105624 -0.158949 0.101472 1.064025 0.078902 -0.178616 -0.085633 0.457581 0.395581 -0.465370 0.056637 -0.769885 -0.060190 -0.264244 0.105569 -0.166915 0.340594 -0.042030 -0.304168 0.953571 -1.310285 0.362606 0.616544 0.333121 -0.378226 0.063541 0.152990 -0.733116 0.937190 -0.229874 0.271947 
c50 0.149692 -0.228440 0.248356 -0.229605 0.169067 -0.136075 0.447768 -0.344408 0.182053 -0.101149 -0.104290 0.724617 -0.315818 -0.554679 -0.525350 0.691581 0.362937 -0.458350 0.330135 -0.518857 -0.405851 -0.094014 0.729047 0.217165 -0.248981 -0.256748 -0.230016 0.023422 -0.011138 -0.181764 -0.303013 -0.067518 -0.323940 0.057321 -0.189378 0.238021 -0.116662 -0.161574 0.734486 -0.128172 -0.087798 0.314117 -0.643030 0.650230 -0.176828 0.350377 -0.160421 0.198611 -0.057387 -0.250828 
c157 0.005367 0.073030 0.136141 -0.096930 0.035479 -0.062300 0.322664 -0.287042 0.059554 0.369014 -0.249126 0.500893 -0.584824 -0.707543 -0.295834 0.412590 0.372406 -0.295065 0.007298 -0.304398 -0.228679 -0.084440 0.524293 0.180136 -0.396677 -0.523811 0.198703 0.126692 -0.125049 -0.394311 -0.198382 -0.145206 -0.223512 -0.136859 -0.216393 0.294178 -0.116959 -0.291793 0.693384 -0.549150 -0.130838 0.266820 -0.959613 0.208719 -0.054129 0.471737 0.051838 0.672901 0.003053 0.021950 
w2828 0.182853 -0.172336 0.848058 0.278191 -0.032704 -0.100906 0.520645 -0.067719 0.299876 0.131683 0.243219 -0.344180 -0.546610 0.395989 0.078994 0.177957 -0.078906 0.125550 0.294240 0.447793 -0.284135 0.017772 0.077702 -0.324804 -0.094741 0.243185 -0.018498 -0.125896 0.084456 -0.121609 -0.093985 -0.054903 -0.297956 0.051939 0.110348 0.438168 0.889643 0.047115 0.112986 -0.080910 -0.163322 0.093824 -0.123813 0.130355 -0.013497 0.500456 -0.057708 -0.113129 -0.657341 -0.752340 
w1110 0.166431 0.133167 0.677706 -0.017002 -0.135465 0.133731 0.673362 -0.044761 -0.122294 -0.170506 0.058809 -0.273862 -0.976191 0.019777 0.362258 0.310668 0.191832 0.014241 0.132377 0.229464 -0.084842 -0.275283 0.321724 -0.174353 0.385410 0.153836 0.159953 -0.220654 0.135850 -0.109979 -0.477526 0.115653 0.008328 -0.238051 -0.168471 0.074578 0.285441 -0.066406 0.132918 -0.504746 -0.206433 -0.179632 0.192808 0.187474 0.047377 0.008370 0.028704 0.069535 -0.507326 -0.014032 
c350 -0.137456 -0.120553 0.355888 -0.095400 0.394213 -0.129502 0.371196 -0.142652 0.301983 0.271924 -0.081662 0.557261 -0.569005 -0.673212 -0.551756 0.284201 0.437013 -0.365581 0.112697 -0.088882 -0.476569 0.051359 0.702390 0.101077 -0.212665 -0.428107 -0.018269 0.248557 -0.082956 -0.372100 0.206088 -0.407647 -0.539939 -0.081755 -0.014360 0.368488 0.019511 0.004460 0.873275 -0.170833 -0.287513 0.034237 -0.846305 0.017760 -0.209045 0.437364 0.047641 0.679578 0.080758 -0.090944 
w305 0.207940 -0.259365 0.583385 0.102856 -0.355646 0.073502 0.472105 -0.233849 0.215979 -0.293768 0.256355 -0.357250 -0.478682 0.234213 0.121843 0.150161 0.114627 0.203086 0.084042 0.229226 0.066600 -0.037200 0.142709 -0.144109 0.003444 0.135275 0.051318 -0.186870 0.134347 -0.076322 -0.194654 0.056372 -0.349326 -0.139573 0.146686 -0.031368 0.643245 -0.075406 0.014181 -0.336514 -0.247111 0.317371 0.066641 -0.060676 0.168901 0.598870 -0.011241 -0.044817 -0.641098 -0.540189 
w10147 0.233620 0.217383 0.510142 -0.030417 -0.229304 0.117635 0.427640 -0.079870 0.112240 -0.136974 -0.093266 -0.036548 -0.688196 -0.043302 -0.011323 0.262145 0.129929 0.193203 -0.035466 0.069465 0.022369 0.040720 0.432319 -0.118982 0.194188 0.016276 0.140776 -0.055403 0.072037 -0.134663 -0.344706 0.023079 -0.112099 -0.215794 -0.229088 -0.002491 0.209436 0.000949 0.209764 -0.360110 -0.261715 0.063344 -0.030774 0.082634 -0.128658 0.065862 0.227500 0.178108 -0.343223 -0.029977 
c419 0.209848 -0.290274 0.739872 0.019312 -0.130845 -0.169850 0.132323 -0.001565 0.201971 -0.174104 0.272932 -0.046454 -0.731689 -0.346008 -0.863878 0.118562 0.043898 -0.159381 0.021662 -0.200921 -0.264902 -0.030625 0.699134 0.405116 -0.029641 -0.365568 -0.634287 -0.044780 -0.522994 -0.449446 -0.000136 -0.395803 -0.046187 -0.272363 0.113554 0.022014 -0.198399 -0.589429 0.475319 0.017748 -0.096891 0.419952 -0.519333 -0.048026 -0.116280 0.291805 -0.014703 0.793289 0.165119 -0.081669 
c278 -1.233649 -1.298092 -0.203690 -0.263803 -0.029219 0.836367 0.684296 -0.572816 1.206589 0.267926 0.165503 0.817970 -1.203769 -1.520060 -0.837682 0.451964 -0.422868 0.199591 0.487618 -0.055212 0.137042 0.306093 1.082207 -0.295901 0.100051 -0.024354 0.571006 0.122696 -0.017875 -0.320730 -0.760070 0.179990 -0.405727 0.445693 -0.091404 0.328316 0.445373 -0.475062 0.989706 -0.919836 0.270749 0.756119 0.070122 -0.591645 -0.287303 -0.086513 -0.986533 0.947739 -0.563996 0.189691 
c2355 -0.084326 -0.299035 0.278651 0.026134 0.198348 -0.077910 -0.036592 -0.369608 0.322185 0.136490 0.102308 0.239622 -0.217178 -0.326434 -0.431619 0.167127 0.329076 -0.180806 -0.073588 -0.181212 -0.442969 0.006796 0.290291 0.123085 -0.153201 -0.144388 -0.115563 -0.117914 0.024128 -0.265897 0.058902 -0.542628 -0.374280 0.316875 0.292795 0.394612 0.074656 -0.153027 0.515987 -0.347600 -0.408354 0.379137 -0.251336 0.063563 0.039652 0.266486 0.108611 0.337429 -0.020127 -0.297410 
w471 0.073256 0.176032 0.330271 0.171880 -0.346328 0.274160 0.542485 -0.110503 0.256920 -0.444228 0.236764 -0.119656 -0.449769 0.329788 0.145295 0.329148 0.033096 0.264991 -0.103496 0.252737 -0.020351 -0.206730 0.466471 -0.202267 -0.167990 -0.018193 -0.116849 0.076363 -0.352014 -0.315909 -0.563383 0.306873 -0.152299 -0.600335 0.328709 -0.171730 0.706552 0.008430 0.284714 -0.230221 -0.202958 0.139189 -0.381742 -0.070704 0.308369 0.322635 -0.060464 -0.094622 -0.615723 -0.277542 
c424 0.134815 -0.034277 0.529707 -0.207164 0.251523 -0.356113 0.213411 -0.170643 0.336122 0.363791 -0.132626 0.550418 -0.480253 -0.561702 -0.540992 0.263717 0.336786 -0.478934 0.351545 -0.616644 -0.462072 -0.203740 0.873129 0.148565 -0.421643 -0.578870 -0.147747 0.323031 -0.207902 -0.233879 0.092325 -0.501009 -0.365581 0.409202 0.025246 0.526544 -0.142436 -0.290741 0.690066 -0.363229 -0.178442 0.388833 -0.556332 0.334687 -0.076185 0.433750 0.268643 0.543947 0.025264 -0.252370 
c100 -0.836896 -0.980256 -0.003356 -0.482770 -0.008044 0.133366 0.833091 -0.240237 0.937042 -0.053586 0.423321 0.685825 -0.839066 -1.039246 -0.539241 0.833395 -0.087958 -0.019161 0.460094 -0.277765 0.195047 -0.398842 1.056188 -0.142109 0.055492 0.057000 0.627396 0.643797 -0.421388 0.142748 -0.454557 -0.561830 -0.440321 0.292613 -0.424455 0.250482 0.368629 -0.329826 0.369634 -1.530479 0.037698 0.517498 0.084136 -0.756170 -0.157467 0.332306 -1.305935 0.929286 -0.074756 0.298455 
c15 -0.242827 -0.038129 0.310562 0.005519 0.152825 -0.051267 -0.075400 -0.095339 -0.125859 0.335317 -0.061412 0.245055 -0.624555 -0.311221 -0.575347 0.134910 0.337207 -0.135342 -0.256012 -0.311324 -0.280350 0.313071 0.578115 -0.039758 0.073689 -0.292014 0.135428 0.187249 0.268384 -0.155133 -0.019776 -0.405704 -0.422758 0.180780 0.077428 0.096805 -0.177843 0.021743 0.460928 -0.421420 -0.511660 0.178808 -0.696769 -0.095525 -0.069716 0.605803 0.279576 0.499432 -0.098264 -0.144346 
c850 0.025785 -0.169604 0.219636 -0.235363 0.324902 -0.341683 0.631016 -0.417707 0.153965 0.212720 -0.069870 0.642408 -0.502786 -0.487476 -0.309003 0.330152 0.582744 -0.405436 0.121696 -0.266151 -0.440034 -0.097000 0.472186 0.124704 -0.345993 -0.467389 -0.035169 0.241332 -0.145235 -0.124493 -0.078758 0.020557 -0.216152 0.419836 -0.021473 0.230040 -0.121106 -0.125022 0.533935 -0.361266 -0.157877 0.148605 -0.668624 0.387681 -0.006945 0.364464 0.166479 0.415965 -0.132646 -0.313086 
c152 -0.571147 -0.618909 -0.162340 -0.073184 -0.055058 0.698218 0.562553 -0.424057 0.485081 0.077735 -0.282711 0.521052 -0.837249 -1.207815 -0.563830 0.242380 -0.068422 0.223565 0.850491 -0.161647 -0.009363 -0.049153 1.047133 -0.011349 -0.287935 -0.025495 0.439725 0.343144 -0.590873 -0.025290 -0.703839 -0.078895 -0.086008 -0.003251 -0.064455 0.268146 -0.020439 -0.479782 0.797103 -1.193035 0.384883 0.716810 0.215578 -0.428214 0.048825 0.251927 -0.754443 0.890958 -0.246922 0.274224 
c148 -0.771013 -1.011301 -0.106514 -0.283903 -0.155774 0.054703 0.695784 -0.228971 1.242360 -0.108252 0.319231 0.946365 -1.328686 -1.287570 -0.622875 0.733921 -0.251801 0.026072 0.301286 -0.126604 0.384108 -0.312119 0.989994 -0.428640 0.283680 0.185977 0.606323 0.218299 0.055702 -0.362420 -0.700555 -0.310113 -0.415204 0.387462 -0.329175 0.131659 0.382115 -0.287413 0.054732 -1.205906 0.218651 0.496186 0.168123 -0.608011 -0.274927 0.097814 -1.316599 0.903425 -0.107171 0.226286 
c485 0.082810 -0.476215 0.284109 0.181067 0.304705 -0.123927 0.051339 -0.163155 0.263240 0.517481 -0.105527 0.668812 -0.479911 -0.507769 -0.475718 0.010572 0.516890 -0.100038 -0.209464 0.005696 -0.746439 -0.140356 0.603219 -0.076737 0.104077 -0.270598 0.093955 0.265058 -0.115741 -0.334353 0.130355 -0.494908 -0.741012 0.183093 0.426013 -0.027541 0.064277 -0.018270 0.570459 0.020429 -0.334089 0.171161 -0.810039 0.146163 -0.138313 0.485487 0.220692 0.599964 0.170580 -0.438635 
c274 0.029508 0.211710 0.242400 -0.262915 0.149724 -0.167126 0.080129 -0.269839 0.304442 0.422990 -0.282401 0.350390 -0.441926 -0.619368 -0.364973 0.391523 0.378085 -0.070873 0.123092 -0.330385 -0.592167 0.133202 0.716706 0.343067 -0.278611 -0.654522 -0.088692 -0.025599 -0.042841 -0.301634 0.117199 -0.456377 -0.505005 0.235745 0.025431 0.124954 -0.176535 -0.166595 0.711208 -0.448037 -0.137355 0.152866 -0.701907 0.192198 -0.088803 0.379529 0.297093 0.612732 -0.124093 -0.388707 
c1582 0.027195 -0.639022 0.429879 -0.201782 0.240178 0.263831 0.383076 -0.630139 0.384939 0.145142 0.156747 -0.127618 -0.056827 -0.534088 -0.022208 -0.323265 0.224287 -0.515442 0.132990 -0.187795 -0.011929 -0.117103 0.154408 0.083193 -0.442620 0.101540 0.532420 0.036223 -0.291132 0.197991 -0.159081 -0.209432 -0.470921 0.739875 0.309209 -0.022371 0.187807 -0.102340 0.366895 -0.396501 0.241613 0.537351 -0.137952 0.206956 0.158847 0.388507 -0.498740 0.040006 0.511367 -0.769207 
w4016 0.210461 0.087857 0.514615 0.132590 -0.312659 0.512859 0.000779 0.167114 0.013189 0.121987 -0.146707 -0.007674 -0.282222 0.145325 0.026223 0.174026 -0.114180 -0.066485 -0.127889 -0.222035 0.494240 0.076188 0.448010 -0.287957 -0.246471 -0.098732 -0.037153 -0.318271 -0.053346 0.055952 -0.345011 -0.642428 -0.307597 -0.146964 -0.200837 -0.072750 0.387669 0.045972 0.487439 -0.802021 0.198035 -0.051008 -0.496622 0.280896 -0.137874 0.191856 -0.205512 0.480884 0.269233 -0.320370 
c561 0.364284 -0.229971 0.377270 -0.264794 0.129210 -0.208210 0.193110 -0.448763 -0.126198 -0.195319 -0.590451 0.374860 -0.388132 -0.460739 -0.212831 0.945995 0.193826 0.431449 0.055419 -0.186695 -0.426479 -0.286255 0.944530 0.191441 0.218482 -0.397888 -0.174167 -0.017216 0.245974 -0.092424 -0.073452 -0.589136 -0.324018 0.079559 0.026991 0.109175 -0.306371 -0.207170 0.764362 -0.617822 -0.108444 0.539379 -0.513751 0.594249 -0.482433 0.108182 0.223353 0.047292 0.083765 -0.079941 
w21 0.246543 -0.134605 0.397280 -0.001566 -0.382113 0.134683 0.445930 -0.140538 0.146122 -0.349632 0.291761 -0.409104 -0.731797 0.215250 0.149950 0.226808 0.113765 0.130809 0.179661 0.077834 0.141841 -0.069096 0.171351 -0.238182 0.117576 0.033199 0.050288 -0.251641 -0.152050 -0.141198 -0.135037 0.205082 -0.245931 -0.307131 0.276184 -0.117396 0.457169 0.053491 -0.007781 -0.348359 -0.339905 0.234097 0.114815 -0.125771 0.299243 0.367799 0.063975 0.158604 -0.570701 -0.495239 
c12 0.003060 0.205307 0.494700 -0.458599 0.132077 -0.539127 0.266166 -0.264776 0.369738 0.313869 -0.194663 0.671996 -0.216257 -0.793344 -0.579367 0.631346 0.341243 -0.373430 0.306494 -0.430728 -0.345760 -0.227455 0.685113 0.017469 -0.282873 -0.447323 -0.139999 0.164008 -0.065106 0.022401 0.145366 -0.469438 -0.170931 0.421334 -0.222321 0.353006 -0.358006 -0.115585 0.695455 -0.519890 -0.355860 0.564562 -0.442244 0.362882 -0.099136 0.394857 0.240524 0.647783 -0.124531 -0.308143 
c137 0.144412 0.061537 0.500939 -0.079318 0.266556 -0.432418 0.197157 -0.541466 0.094720 0.254361 -0.178911 0.573953 -0.620058 -0.753509 -0.215763 0.475457 0.394883 -0.150740 -0.024411 -0.397243 -0.412318 -0.307955 0.622240 0.113941 -0.339164 -0.560863 0.298790 0.241034 0.019519 -0.214266 0.044738 -0.127570 -0.422095 0.406056 -0.144237 0.441825 -0.290589 -0.116199 0.728961 -0.133426 -0.399848 0.454997 -0.753892 0.153894 0.032097 0.488175 0.084737 0.489484 0.273042 -0.255869 
c182 0.261183 -0.238061 0.243443 -0.438716 0.263765 -0.032946 0.614123 -0.752455 0.219004 0.012594 0.065928 0.375235 -0.511424 -0.611953 0.059639 0.315279 0.470949 -0.051123 -0.120393 -0.364709 -0.311640 -0.189719 0.268353 0.087990 -0.555251 -0.204586 0.386110 -0.021045 -0.332424 0.189551 0.092665 -0.282197 0.010529 0.394437 -0.066161 0.358980 -0.228790 -0.047155 0.434977 -0.471885 -0.281707 0.466596 -0.564338 0.663000 -0.133283 0.482016 0.113164 0.162863 0.578915 -0.295082 
c367 0.075224 0.147328 0.471681 -0.108047 0.224752 -0.340570 0.351113 -0.159837 0.393426 0.369537 -0.231322 0.362879 -0.476092 -0.766741 -0.310419 0.221520 0.392943 -0.207889 0.350591 -0.542185 -0.118091 -0.029780 0.879294 0.093807 -0.585857 -0.300425 -0.035272 0.176241 -0.173956 -0.187109 0.091569 -0.506170 -0.442199 0.155699 -0.126816 0.368639 -0.215251 0.025235 0.633715 -0.078767 0.335302 0.460453 -0.902837 0.234240 -0.018414 0.434326 -0.021482 0.643663 -0.002048 -0.228665 
c150 -0.618269 -0.630355 -0.167234 -0.100132 -0.201108 0.621123 0.692919 -0.478133 0.468571 0.015544 -0.205750 0.444423 -0.815766 -1.132998 -0.600664 0.352245 -0.076123 0.117967 0.886399 -0.024670 -0.137133 0.061341 1.121581 -0.144176 -0.422690 0.023966 0.526115 0.385371 -0.468802 0.010300 -0.563673 -0.056101 -0.160623 -0.088439 -0.317647 0.205077 -0.044955 -0.402373 0.962678 -1.171770 0.432178 0.608945 0.135290 -0.230895 0.023697 0.212319 -0.697545 0.792852 -0.345671 0.290452 
c22 0.224032 0.196688 0.778898 0.015245 0.379624 -0.038178 0.053840 -0.222362 0.107959 0.233095 -0.350518 0.403570 -0.452610 -0.498592 -0.388069 0.783328 0.546286 0.058108 0.028256 -0.342483 -0.620121 -0.297457 1.203433 0.251260 0.029904 -0.281592 0.165926 -0.282461 0.416967 -0.495440 -0.092252 -0.524987 -0.348116 0.243813 0.164788 0.175241 -0.122102 -0.504789 0.733327 -0.453599 0.019584 0.225056 -0.637456 0.710279 -0.301677 -0.120814 0.118061 0.432726 -0.055094 -0.147219 
w239 0.063058 -0.174605 0.808486 0.088594 -0.014649 -0.087579 0.499777 -0.256816 0.217773 -0.183586 0.306212 -0.256125 -0.637594 0.337110 0.315022 0.131990 0.042040 0.073113 0.084224 0.344804 -0.154295 0.089037 0.127655 -0.329645 0.209097 0.352772 -0.045917 -0.147716 0.278053 -0.068149 -0.160779 0.016354 -0.525630 -0.122182 -0.193420 0.312618 0.746814 0.150916 -0.064545 -0.333684 -0.321716 0.116473 -0.038955 -0.263984 0.166831 0.537253 -0.127752 0.055378 -0.608660 -0.527011 
c326 0.248681 0.241130 0.502401 -0.270110 0.329915 -0.362704 0.451689 -0.314745 0.283919 0.318187 -0.270614 0.342476 -0.399232 -0.788772 -0.639923 0.668132 0.492469 -0.288957 0.260933 -0.454293 -0.356114 -0.255365 0.263987 0.252728 -0.331289 -0.613319 -0.018448 0.358629 -0.238175 -0.060737 0.160103 -0.334960 -0.406364 0.502576 -0.253920 0.273336 -0.088202 -0.238502 0.527688 -0.458717 -0.182914 0.272666 -0.530506 0.229961 0.096110 0.276069 0.186140 0.483971 0.150571 -0.426845 
c149 -0.964264 -1.162054 0.354511 -0.395101 -0.138616 0.259148 0.467011 -0.028532 1.478417 -0.100816 0.308814 0.997539 -1.084570 -1.472922 -0.826638 0.799416 -0.470374 0.010126 0.331589 0.228769 0.096942 0.051446 0.943270 -0.417227 0.356990 0.197590 0.190838 0.210835 0.404752 -0.057397 -0.902164 -0.205627 -0.607725 0.576729 -0.238315 0.209587 0.383226 -0.275631 0.508462 -1.110607 0.221589 0.692650 0.219032 -0.629105 -0.200478 0.080486 -1.164953 0.606444 0.118388 0.362980 
c155 0.361939 0.096261 0.153425 -0.260953 0.150740 0.095596 0.638218 -0.241982 0.289145 0.196070 -0.297905 0.201656 -0.662953 -0.675773 -0.169712 -0.008211 0.481085 -0.185783 0.062665 -0.688491 -0.061575 -0.178326 0.361648 0.203350 -0.567449 -0.540097 0.099327 0.144422 -0.199300 -0.243436 -0.209114 -0.487959 -0.077995 0.187226 -0.311461 0.100031 -0.349882 -0.192726 0.701575 -0.635064 -0.007408 0.340311 -0.824235 0.356690 0.049000 0.296063 -0.023033 0.436548 0.264482 -0.328981 
c183 -0.020819 -0.254238 0.411764 -0.458098 0.149877 -0.153746 0.578691 -0.541416 -0.001443 0.160823 -0.089612 0.457100 -0.629625 -0.766390 -0.267147 0.272987 0.471417 -0.337229 -0.101453 -0.336275 -0.530571 -0.189090 0.255122 0.115711 -0.279394 -0.320436 -0.077948 0.018457 -0.084998 -0.118881 0.040435 -0.147173 -0.128891 0.378935 -0.042973 0.278621 -0.072957 -0.345987 0.429641 -0.236346 -0.281685 0.279938 -0.655167 0.690040 0.073258 0.666770 0.265830 0.196424 0.365401 -0.283631 
c732 -0.075095 0.351823 0.514196 -0.039128 0.206884 -0.409586 0.522264 -0.229204 0.199207 0.151578 -0.226347 0.514439 -0.420412 -0.370899 -0.570770 0.500017 0.324271 -0.392783 0.159757 -0.321093 -0.349005 -0.128362 0.701312 0.104503 -0.274768 -0.468309 0.039559 0.356106 -0.060968 -0.120694 0.100668 -0.239303 -0.387383 0.006419 -0.298427 0.335630 0.065577 -0.086664 0.633017 -0.305188 -0.102077 0.269446 -0.671516 0.554415 -0.199571 0.156484 0.139082 0.436867 0.005991 -0.237383 
c835 0.104944 0.027481 0.412854 -0.326382 0.402559 -0.307778 0.530205 -0.417003 0.204341 0.247383 -0.258867 0.497919 -0.601277 -0.606218 -0.481887 0.286787 0.428815 -0.366384 0.190951 -0.328440 -0.391314 0.063711 0.580125 0.219417 -0.383665 -0.595136 0.237449 0.163865 -0.009267 -0.273956 0.084508 -0.351542 -0.365895 0.239057 -0.091811 0.364020 -0.107404 -0.083157 0.502751 -0.262799 -0.150422 0.192771 -0.687795 0.405985 0.000020 0.314508 0.185830 0.287520 -0.106662 -0.222937 
c43 -1.120336 -0.944241 -0.183632 -0.557968 -0.202229 -0.048247 0.768929 -0.156588 0.958468 -0.092485 -0.059391 0.619156 -0.491578 -1.179929 -0.780520 0.239138 -0.030664 -0.619495 0.688141 -0.319310 -0.488482 -0.567593 1.325664 0.262292 -0.194439 -0.206106 0.741425 0.481481 -0.221212 -0.625195 -0.766244 -0.350934 -0.596298 0.104152 -0.093937 -0.394892 0.191738 -0.045207 0.721338 -0.930098 0.261201 0.946612 0.140172 -0.277083 0.246813 -0.064108 -1.247948 0.486185 -0.323361 0.169104 
c408 0.071808 0.125186 0.334964 -0.168207 0.331693 -0.200031 0.341926 -0.415587 0.307104 0.293640 -0.100800 0.607092 -0.568676 -0.679450 -0.488933 0.436918 0.596897 -0.128386 -0.090009 -0.411402 -0.603676 -0.186679 0.616177 0.067116 -0.362857 -0.445375 0.018682 0.218669 -0.013208 -0.355033 0.142554 -0.318729 -0.352168 0.345191 -0.009280 0.425752 -0.352041 -0.034110 0.527438 -0.582031 -0.143808 0.330079 -0.630207 0.213449 -0.168250 0.374343 0.165093 0.602814 0.082542 -0.296648 
c44 0.496463 -0.182107 0.196233 -0.145224 0.029289 0.022898 0.349411 -0.352350 -0.203399 -0.083199 -0.334729 0.307153 -0.456580 -0.632245 -0.152243 0.344776 0.275675 0.006197 -0.083869 -0.530933 -0.414711 0.027969 0.791881 0.352582 -0.174504 -0.370229 -0.139716 0.067342 0.242286 -0.418814 -0.132515 -0.524162 -0.046395 -0.170131 -0.045385 0.041698 -0.375834 -0.393490 0.684490 -0.736605 -0.272069 0.176402 -0.540388 0.046227 -0.041869 0.358997 0.066408 0.538647 0.032461 -0.021612 
c188 -0.639097 -0.893813 0.235202 -0.460215 -0.187634 -0.033250 0.742830 -0.071293 1.105219 -0.193721 0.546482 0.904218 -0.984039 -1.417241 -0.532335 0.695414 -0.107989 -0.016426 -0.026256 -0.338523 0.342382 -0.515516 0.852925 -0.302144 0.237190 -0.056807 0.614687 0.494744 0.128587 0.013860 -0.453557 -0.638894 -0.668377 0.562337 -0.347926 0.020182 0.342297 -0.062208 0.178470 -1.238414 0.118050 0.446577 -0.118098 -0.807804 -0.283507 0.151783 -1.109256 0.964724 0.244573 0.396070 
c180 0.094958 -0.297482 0.539102 -0.332790 0.063030 -0.233981 0.418697 -0.278850 0.151413 0.219564 0.208171 0.482462 -0.400558 -0.356963 -0.601712 0.565851 0.440050 -0.701565 0.137214 0.119453 -0.326399 -0.274329 0.581169 -0.131702 -0.267713 -0.233497 -0.057114 0.548237 -0.166291 -0.087663 0.129822 -0.032310 -0.458701 -0.219792 0.013043 0.337210 0.363874 -0.264464 0.888832 -0.136466 -0.388008 0.030074 -0.725803 0.423446 -0.321389 0.614029 -0.214611 0.559874 0.155775 0.323246 
c35 0.219890 -0.084283 0.166085 -0.141272 0.270750 0.001514 0.250988 -0.385935 0.146812 0.142504 -0.240347 0.579941 -0.411192 -0.720203 -0.363186 0.376403 0.349055 -0.115662 0.211821 -0.550025 -0.499016 -0.228442 0.675660 0.440987 -0.045793 -0.428644 -0.118518 -0.094019 0.008678 -0.229251 -0.198756 -0.512374 -0.240069 0.085524 -0.164388 0.096203 -0.356338 -0.273363 0.481339 -0.717540 -0.343501 0.357108 -0.531194 0.037069 0.098398 0.253188 0.173344 0.490128 0.165031 -0.298066 
w1570 -0.044767 0.346755 0.371637 -0.120285 -0.291010 -0.495249 0.345724 -0.008956 0.076541 0.109875 0.324376 0.368439 -0.702829 -0.302769 -0.805682 0.141580 -0.075918 -0.426101 0.318698 0.611015 0.148229 -0.206186 0.451681 0.085327 0.337213 0.173699 -0.259733 -0.356877 -0.154682 -0.188418 -0.191831 0.063144 -0.399958 -0.180080 -0.388608 0.403024 0.519655 0.419877 0.242158 -0.444565 -0.272064 0.085258 0.060163 0.352838 -0.156212 0.302785 -0.309169 0.118403 -0.416260 0.092705 
c142 -0.697503 -1.095502 -0.055079 -0.221157 -0.186436 0.329792 0.933052 -0.355656 1.131521 0.248942 0.066669 0.791950 -1.024701 -1.275160 -0.596161 0.837929 -0.101709 0.179958 0.616449 -0.171253 0.122309 -0.162648 1.061222 -0.280672 -0.141562 0.040726 0.329787 0.629204 -0.364206 0.136841 -0.713807 -0.235768 -0.264274 0.248051 -0.164322 0.505911 0.206957 -0.287526 0.469393 -1.422056 0.200943 0.691865 0.164617 -0.883801 -0.119850 0.286691 -1.294583 0.949220 -0.293078 0.547761 
c140 -0.424922 0.211052 1.067311 -0.003577 0.217827 -0.385550 0.438041 -0.163429 -0.098091 0.169482 -0.473249 0.640110 -0.529308 -0.731120 -0.346910 0.108506 0.524021 -0.217992 0.245061 -0.167576 -0.454207 0.046112 0.711557 0.068284 -0.375734 -0.607840 -0.017630 -0.032286 -0.053983 -0.320491 0.532709 -0.403504 -0.365109 0.301067 -0.147127 0.506632 -0.234073 -0.354988 0.473406 -0.319213 -0.285425 0.364695 -0.626611 -0.036152 0.373768 0.075980 0.303314 0.735872 0.082687 -0.570241 
c614 -0.101296 0.014431 0.243569 -0.473339 0.199453 0.116548 0.280009 -0.203358 0.103992 0.335635 -0.177568 0.488130 -0.376001 -0.609038 -0.109527 0.223731 0.444803 -0.317735 0.286512 -0.292791 -0.467740 0.030811 0.830678 0.202631 -0.417891 -0.531495 0.210759 0.290778 -0.044710 0.045900 0.039166 -0.084870 -0.501599 0.411821 0.037390 0.404694 -0.195862 0.125617 0.849109 -0.342759 -0.087518 0.066231 -0.636592 0.257723 -0.098721 0.549644 0.231966 0.568048 -0.132453 -0.301849 
c163 -0.563968 -0.719269 -0.221613 -0.240211 -0.188117 0.404180 0.621750 -0.447020 0.457884 0.048697 -0.325851 0.421112 -0.755544 -1.087985 -0.670778 0.535047 0.076062 0.239533 0.967186 -0.096977 -0.179249 -0.086380 1.165525 -0.059438 -0.346442 0.010276 0.755194 0.581273 -0.733066 0.153444 -0.630318 -0.123666 -0.040992 0.136875 -0.106617 0.364369 0.084151 -0.360107 0.892849 -1.204949 0.256102 0.699104 0.254719 -0.467922 0.062065 0.344450 -0.848680 0.788821 -0.358040 0.309227 
c74 -0.005736 -0.274525 0.480955 -0.189368 0.081068 -0.201899 0.101854 -0.475059 0.348552 0.260896 -0.128698 0.386021 -0.319453 -0.963482 -0.528398 0.168326 0.520368 -0.258205 0.189151 -0.277203 -0.465696 -0.346322 0.375029 0.261630 -0.063311 -0.398387 -0.179766 0.111408 -0.003481 0.110198 -0.337643 -0.626370 -0.328982 0.135315 -0.301980 0.094219 -0.529080 -0.155529 0.304905 -0.723880 -0.378401 0.551438 -0.120494 0.012321 -0.087673 0.529759 0.265324 0.498752 0.282820 -0.262823 
c139 0.084210 0.225868 0.417396 -0.106251 0.321150 -0.100597 0.167119 -0.600310 0.205263 0.154588 -0.132340 0.509844 -0.519567 -0.731013 -0.355369 0.540425 0.683120 -0.416402 0.279724 -0.265293 -0.586334 -0.060738 0.672420 0.319349 -0.450985 -0.591361 0.200043 0.140402 -0.143451 -0.267247 0.039570 -0.233894 -0.113528 -0.012791 -0.013869 0.304287 0.002018 -0.245373 0.550896 -0.397524 -0.128632 0.356133 -0.837389 0.233850 -0.112768 0.424991 0.088468 0.580783 0.040780 -0.124035 
c39 0.162583 -0.101658 0.508218 0.286590 0.141787 -0.476881 0.356083 -0.552941 0.527739 0.180628 -0.038139 0.505779 -0.398614 -1.068599 -1.112332 0.571376 0.254186 -0.706630 0.152482 -0.530943 -0.327972 -0.015915 0.309834 -0.259597 -0.157870 -0.498114 -0.096231 0.769389 -0.086675 0.009720 0.315987 -0.187330 -0.081164 0.000264 -0.288236 0.631747 0.122534 -0.178000 0.701445 -0.157585 -0.021569 0.344812 -1.152958 0.389753 -0.257158 0.718723 -0.100697 0.448900 -0.223340 -0.210133 
c492 -0.032924 -0.148463 0.489349 -0.159734 -0.079271 0.186331 0.341158 -0.051858 0.143422 -0.204687 0.019960 0.407398 -0.633434 -0.313025 -0.539994 0.144620 0.266469 -0.427901 -0.013481 -0.218340 -0.237948 -0.004467 0.838457 0.155137 -0.200591 -0.399207 -0.248861 0.582173 -0.404043 -0.442013 -0.362041 -0.136765 -0.280434 -0.303928 -0.064815 0.101030 -0.149083 -0.286978 0.753066 0.258038 -0.037884 0.255576 -0.945861 0.026245 -0.017032 0.185781 0.035001 0.770084 0.004103 -0.130736 
c110 0.163547 -0.182316 0.009890 -0.216873 0.181476 0.016442 0.305283 -0.380526 -0.088156 0.001785 -0.394543 0.131357 -0.607246 -0.669965 -0.018143 0.560052 0.242957 0.064545 -0.172042 -0.096335 -0.513637 -0.034021 0.977544 0.488832 -0.046135 -0.146006 0.079151 -0.343439 0.357368 -0.315925 -0.228242 -0.506910 -0.145019 -0.103985 -0.211460 0.086409 -0.314116 -0.386443 0.700314 -0.735920 -0.157983 0.107222 -0.735793 0.314110 -0.039514 0.337528 0.585375 0.326267 0.187359 0.013002 
w875 -0.022007 -0.104969 0.697996 0.012870 -0.105569 0.155485 0.513121 -0.175499 0.339602 -0.092075 0.171928 -0.488425 -0.551953 0.099791 0.401461 0.067135 -0.022704 -0.025744 0.028079 0.143236 0.009110 0.095049 0.064077 -0.237502 -0.026762 0.121535 0.122276 -0.272479 0.094811 0.032566 -0.166470 0.091416 -0.410149 0.004838 0.182085 0.049158 0.535791 0.035825 0.202337 -0.248332 -0.270669 0.212772 -0.155461 -0.112186 0.178108 0.235379 0.002516 -0.011968 -0.418242 -0.606616 
w6350 0.298758 -0.006760 0.723753 0.205491 -0.293089 0.136050 0.500075 -0.433246 0.292601 0.006134 0.287863 -0.326191 -0.612062 0.373163 0.177185 0.205493 0.088205 0.448985 0.394542 0.462313 -0.185069 0.045703 -0.068988 0.007166 0.317871 0.147292 -0.074449 -0.125471 0.065249 0.007489 -0.091943 -0.111588 -0.259175 0.179340 0.026092 0.367294 0.969243 -0.009810 0.175912 -0.136962 -0.167305 0.222643 -0.071013 0.123331 -0.016931 0.466807 -0.073325 -0.002127 -0.596154 -0.571645 
c286 -0.620929 -0.695418 -0.148672 -0.073024 -0.292229 0.455313 0.758879 -0.339028 0.624027 0.065129 -0.154539 0.640346 -0.897759 -1.239010 -0.503901 0.356617 -0.069737 0.182740 1.015282 -0.119856 -0.182768 -0.208216 1.227961 -0.099237 -0.348241 0.193258 0.728306 0.410298 -0.721320 0.089800 -0.503205 -0.092821 -0.056671 0.028406 -0.103013 0.372250 0.075129 -0.311704 0.958819 -1.289588 0.342037 0.601195 0.356175 -0.683236 0.088669 0.255224 -0.841260 0.914829 -0.258228 0.262610 
w90 0.279988 -0.000570 0.538343 -0.029233 -0.220498 0.190206 0.433737 -0.094573 0.173952 -0.062339 0.320271 -0.511423 -0.562535 0.282664 0.241008 0.196549 0.071167 0.241050 -0.018244 0.311285 -0.065432 -0.050025 0.186391 -0.120560 -0.060743 0.150336 -0.055371 -0.044936 0.075649 -0.056212 -0.268135 0.011423 -0.111040 -0.200148 0.160262 0.165464 0.643723 0.037588 0.091842 -0.200472 -0.255966 0.309457 0.020570 -0.068110 0.174981 0.465558 -0.073706 0.064368 -0.534164 -0.626937 
w1009 0.176613 -0.057866 0.667870 -0.043078 -0.467304 -0.010045 0.622488 -0.012074 0.245383 -0.161206 0.221317 -0.310465 -0.657219 0.254925 0.202220 0.298318 0.023154 0.161868 0.189807 0.251432 -0.128479 0.061131 0.075530 -0.231506 0.269937 0.218688 0.029885 -0.140137 0.287192 0.160300 -0.365711 -0.112706 -0.205627 -0.098389 0.014983 0.236860 0.554840 0.050426 0.060043 -0.419776 -0.227101 0.128165 0.105448 0.006768 0.142663 0.165236 0.066626 0.048289 -0.609873 -0.411522 
w1038 0.035920 -0.159837 0.745222 0.196161 -0.006986 0.034709 0.653356 -0.033411 0.230640 -0.230882 0.365726 -0.288973 -0.580013 0.207911 0.324119 0.130173 0.019965 0.005404 0.013689 0.320200 -0.026835 -0.024210 0.126614 -0.295430 0.177182 0.156029 0.039322 -0.193677 0.242932 -0.069197 -0.289690 -0.014298 -0.257340 -0.049098 0.038962 0.043240 0.599815 -0.208043 0.082366 -0.328281 -0.149189 0.348033 0.013957 0.073652 0.057904 0.382293 0.102344 -0.015194 -0.562569 -0.437357 
w10717 0.257889 0.216472 0.544256 0.126263 -0.112290 0.072368 0.507416 -0.004206 0.028473 -0.289083 0.106227 -0.153864 -0.599481 0.368526 0.303376 0.469379 -0.037346 0.116874 0.175094 0.340981 0.065896 -0.292750 0.396481 -0.224514 0.051315 0.022081 0.101515 -0.025587 0.035070 -0.027023 -0.548991 0.076989 -0.324433 -0.245055 0.081643 0.287830 0.790197 -0.006399 -0.021882 -0.461494 0.024662 0.180064 -0.151535 0.007006 -0.049310 0.427170 0.051037 -0.125475 -0.644463 -0.290679 
c108 0.231774 -0.232766 0.417067 -0.108039 0.107412 -0.286758 0.369022 -0.318133 0.171298 0.096026 -0.254817 0.769996 -0.325289 -0.527572 -0.500045 0.535695 0.428983 -0.606123 0.570023 -0.444462 -0.471798 -0.132893 0.582213 0.060823 -0.406546 -0.125764 0.095989 0.177485 0.104687 -0.297436 -0.181106 -0.305904 -0.073693 0.044181 -0.114396 0.249386 -0.171370 -0.150770 0.567045 -0.100592 -0.255475 0.342008 -0.763007 0.514038 0.018151 0.348888 0.037861 0.369905 0.000976 -0.245049 
w830 0.078424 -0.089142 0.697463 0.225856 -0.203835 0.019196 0.561538 0.027324 0.276719 -0.003625 0.182596 -0.412234 -0.673085 0.085678 0.217504 0.252189 -0.045092 0.159427 0.180291 0.241609 -0.078241 0.044998 0.444972 -0.324053 0.029565 0.248294 -0.016453 -0.150233 0.174234 -0.049403 -0.328758 0.166226 -0.334536 -0.145217 0.238256 0.061088 0.519350 0.013896 0.031939 -0.136762 -0.097080 0.220396 0.034367 -0.064286 0.054638 0.633217 0.202358 -0.073551 -0.593942 -0.269150 
c195 -0.844875 -0.740754 -0.198149 -0.115322 -0.016735 0.610422 0.716369 -0.410415 0.690729 0.110242 -0.309579 0.577522 -0.938339 -1.128810 -0.636618 0.321158 -0.072592 0.321179 0.868903 -0.030320 -0.064153 -0.055130 1.195871 -0.125769 -0.305673 0.169135 0.709893 0.534964 -0.711096 -0.095820 -0.663924 -0.190637 -0.251212 0.090499 -0.140272 0.249361 0.152769 -0.420326 0.948931 -1.329435 0.336559 0.603635 0.225151 -0.364368 -0.052451 0.293889 -1.017895 0.901325 -0.444391 0.362361 
c314 0.022299 -0.220522 0.443381 -0.309952 0.145054 -0.317126 0.218899 -0.140698 0.159030 0.030301 -0.031380 0.759728 -0.296379 -0.713166 -0.561014 0.535354 0.511202 -0.681199 0.307479 -0.189212 -0.285756 -0.096111 0.726232 0.371522 -0.319054 -0.291990 0.011897 0.272754 -0.079602 -0.307720 -0.293578 -0.190516 -0.327271 -0.020873 -0.109433 0.185794 -0.043364 -0.151734 0.792307 -0.298027 -0.253084 0.363973 -0.709811 0.208325 0.020709 0.363016 -0.009623 0.591857 -0.082827 -0.010407 
c31 0.490834 -0.286243 0.358558 -0.275708 0.291366 -0.404704 0.299705 -0.397674 -0.059366 0.227011 -0.556077 0.399861 -0.167049 -0.821300 -0.077443 1.267987 0.196414 0.411911 0.035206 -0.278925 -0.810930 -0.570722 1.150995 0.438464 0.013701 -0.391270 0.109228 0.113345 -0.217846 -0.028422 -0.042599 -0.232737 -0.326065 0.239808 0.071793 0.522203 -0.256696 -0.205915 0.712292 -0.957984 -0.261888 0.710253 -0.203735 0.770367 -0.100064 0.290236 0.456097 -0.136697 0.362399 -0.305269 
c193 -0.754897 -0.970594 -0.182873 -0.166571 -0.163283 0.728077 0.828337 -0.554985 0.600733 0.144226 -0.117732 0.579988 -0.938408 -1.208477 -0.643885 0.233678 0.144369 0.275733 0.973959 0.070997 -0.081204 -0.132903 1.101462 -0.069412 -0.315162 0.112825 0.653670 0.524136 -0.615499 0.099422 -0.749239 0.001965 -0.207636 0.061117 0.081342 0.397788 0.166918 -0.501063 0.903146 -1.172188 0.382929 0.647005 0.396732 -0.350632 0.018264 0.332888 -1.040817 0.951706 -0.532922 0.373656 
c652 0.036387 0.149966 0.520894 0.002617 0.017669 0.004854 0.263070 -0.020512 0.111292 0.257944 0.033796 0.345983 -0.662839 -0.610308 -0.291359 0.476527 0.354159 -0.052896 0.096353 -0.253387 -0.488176 0.012090 0.803090 0.193482 -0.352837 -0.588893 -0.022817 0.122084 -0.011803 -0.599733 0.113749 -0.328318 -0.440095 -0.037269 -0.093571 0.118491 -0.305485 -0.231579 0.546107 -0.163060 -0.168844 0.347914 -0.665547 0.234123 -0.114590 0.117045 0.244190 0.358078 -0.008926 -0.280749 
c622 0.048934 0.056229 0.661151 0.446447 -0.015119 -0.264074 0.194194 -0.252448 0.506660 0.307448 0.273365 0.446854 -0.701137 -0.686926 -1.189615 0.271970 0.665657 -0.280065 -0.164284 0.067204 -0.730416 -0.120930 0.743260 0.001532 -0.164354 -0.221936 -0.067341 0.371125 -0.437833 -0.491843 0.478464 -0.440846 -0.814139 0.471018 0.115184 0.196965 0.021765 -0.250072 0.477865 -0.020314 0.084428 0.408797 -0.631214 0.508562 -0.415357 0.220507 0.012141 0.697657 0.173367 -0.573573 
c407 0.149583 0.155386 0.162006 -0.283203 0.276252 -0.174869 0.163056 -0.347910 0.350358 0.555824 -0.274421 0.040514 -0.416763 -0.475719 -0.221825 0.193358 0.246636 -0.274481 0.599706 -0.611654 -0.346316 -0.081000 0.722693 -0.039588 -0.264059 -0.907262 0.036709 0.489346 0.174584 0.077658 0.291979 -0.567848 -0.268257 -0.057551 -0.051174 0.312511 -0.297550 -0.099024 0.838785 -0.965333 0.020917 0.205043 -0.733046 0.254171 -0.106717 0.146532 0.194363 0.861169 -0.345421 -0.289325 
c194 -1.053543 -0.779411 -0.191453 -0.113733 -0.221034 0.644135 0.794582 -0.466641 0.667985 0.073404 -0.136744 0.639749 -0.936885 -1.135817 -0.627576 0.308571 -0.079185 0.186722 0.945850 0.058558 -0.016781 0.051335 1.036779 -0.132980 -0.290784 0.028206 0.572677 0.380330 -0.572073 -0.051141 -0.680000 0.056652 -0.164633 -0.038813 -0.172845 0.336477 0.165384 -0.374615 0.868788 -1.289140 0.240167 0.472087 0.284136 -0.514419 0.135592 0.300093 -0.804491 1.018978 -0.586018 0.308619 
c106 -0.692613 -0.609783 -0.046856 -0.436648 0.013721 -0.207545 0.673127 -0.231784 0.471674 -0.138620 -0.234811 0.416724 -0.362965 -0.783781 -0.413652 0.632448 -0.032090 -0.566693 0.727514 -0.041845 -0.254708 -0.540818 1.341809 -0.058746 -0.183867 -0.202010 0.656154 0.288790 -0.582832 0.121052 -0.400491 -0.397409 -0.047251 0.196594 -0.076811 0.006254 0.165018 -0.312840 0.886667 -1.143522 0.529615 0.830076 0.187171 -0.159882 0.257444 0.295381 -1.098975 0.916243 -0.399991 0.210586 
c998 -0.132089 -1.121086 0.380862 0.033225 -0.080308 -0.338889 0.523540 -0.262934 0.044647 -0.060135 -0.362188 1.060993 0.369018 -0.893845 -0.788700 0.320836 0.603928 -1.139784 0.585045 -0.219286 -0.629849 -0.420000 0.779459 0.179657 -0.867148 0.065351 0.131051 0.112384 0.133678 -0.402772 -0.553464 0.124247 -0.619979 -0.117137 0.177712 -0.015379 0.133135 -0.066863 0.570657 -0.190039 0.042133 0.190854 -0.178976 0.609138 0.427584 0.411275 -0.407310 0.371842 -0.249851 -0.700492 
c294 0.018187 -0.116660 0.625479 -0.038772 0.359065 -0.185047 0.338079 -0.065543 0.349497 0.436247 -0.255836 0.605348 -0.289446 -0.641369 -0.470348 0.243482 0.424981 -0.335487 0.079921 -0.406915 -0.325935 0.022404 0.404942 0.021234 -0.289752 -0.513648 -0.043901 0.363563 0.143391 -0.265740 -0.121295 -0.227826 -0.355123 0.015868 -0.001488 0.090563 -0.170102 -0.203126 0.387082 -0.329541 -0.076172 0.611052 -0.626161 0.271816 -0.107811 0.228043 0.282791 0.494540 -0.107206 -0.567297 
c295 -0.028630 0.109474 0.373468 -0.233196 0.233197 -0.128592 0.370145 -0.280106 0.130012 0.289420 -0.283078 0.593254 -0.479020 -0.520514 -0.372271 0.201777 0.683541 -0.250616 0.252749 -0.430763 -0.480397 0.024994 0.683694 0.155395 -0.364879 -0.432132 0.071302 0.338021 -0.053207 -0.185229 -0.036808 -0.345376 -0.369852 0.103380 -0.120520 0.283106 -0.206016 -0.141943 0.638297 -0.289716 -0.223295 0.146395 -0.824978 0.306234 -0.203191 0.374956 0.318200 0.590064 -0.143939 -0.319292 
c144 -0.661205 -0.788998 0.201122 -0.287039 -0.303484 0.122287 0.801931 -0.078989 1.215505 -0.039109 0.371781 0.967760 -1.375453 -1.398300 -0.498764 0.756582 -0.325061 0.144387 0.144790 -0.145746 0.473435 -0.303596 0.999394 -0.220482 0.299252 0.077916 0.500053 0.614661 -0.009316 -0.243550 -0.395152 -0.513318 -0.552233 0.519695 -0.219018 0.241175 0.305146 0.015748 0.152795 -1.300286 -0.025594 0.483726 0.105711 -0.655590 -0.008524 -0.099635 -0.986658 0.888991 0.480426 0.361027 
c304 0.108530 -0.199445 0.331519 0.164088 0.037571 -0.170694 0.108834 -0.495388 0.039780 0.204252 -0.037817 0.428717 -0.387383 -0.605428 -1.000956 0.342927 0.518633 -0.232175 -0.078053 -0.156551 -0.708592 -0.092938 0.694552 0.258546 -0.017612 -0.038113 0.001621 0.017394 0.080999 -0.393834 0.318237 -0.513205 -0.597534 0.316530 0.221000 0.557779 0.035241 -0.211690 0.399915 -0.387646 -0.323072 0.165547 -0.522120 0.183906 0.150202 0.469363 -0.125752 0.569360 0.341985 -0.217039 
c179 0.080867 -0.119757 0.537817 -0.277160 0.266562 -0.345594 0.193668 -0.497022 0.243986 0.178920 -0.113128 0.810815 -0.385757 -0.401016 -0.544977 0.242591 0.052047 -0.047953 -0.137003 -0.213365 -0.747215 -0.369516 0.352571 0.260777 -0.487835 -0.359911 -0.368630 -0.078497 -0.252776 -0.474826 -0.217574 -0.828576 -0.324200 0.542481 -0.047623 0.229868 -0.154690 0.059012 0.678255 -0.367229 -0.195900 0.329453 -0.547741 0.586402 0.051299 0.377603 0.265324 0.474763 -0.066911 -0.097851 
w57 -0.416889 0.045171 -0.358901 0.506513 0.613924 -0.592051 -0.071386 -0.619139 0.313004 -0.270851 0.792260 0.099081 -0.224313 -0.065686 -0.239231 1.310718 -0.431644 0.105987 0.219219 0.440701 -0.337053 -0.876198 -0.044324 -0.279199 -0.247871 -0.038651 -0.275372 -0.749034 -0.177792 -0.110601 0.013668 0.430182 -0.590785 -0.347943 -0.292965 0.537372 0.694774 -0.072321 0.130027 -0.927891 0.191467 0.644722 -0.234817 -0.356312 0.854081 0.584892 -0.776005 0.172130 -0.607068 -0.634304 
c97 -0.329219 -0.644155 0.273171 -0.616459 0.006469 -0.430348 0.878451 0.082805 0.793236 -0.091976 0.456807 0.704617 -0.762465 -0.878127 -0.342983 0.784365 0.145509 -0.271946 0.244591 -0.455260 0.240832 -0.570550 0.881885 -0.038401 0.130056 -0.024404 0.826368 0.693818 -0.266282 0.153416 -0.471898 -0.832089 -0.505816 0.248962 -0.518507 0.140962 0.180193 -0.097338 0.098312 -1.444910 -0.012464 0.401851 -0.216211 -0.965477 -0.151766 0.373041 -0.909986 0.864837 0.504595 0.157563 
c323 0.278643 0.150086 0.487136 0.085699 0.185878 -0.007509 0.382346 -0.174775 0.251951 0.160097 -0.179039 0.271793 -0.384535 -0.534491 -0.188595 0.189653 0.364830 -0.295163 -0.051857 -0.091889 -0.430655 0.014660 0.700797 0.174800 -0.119070 -0.348358 0.170051 0.134764 0.233608 -0.412030 0.129720 -0.623736 -0.265970 -0.079350 -0.123485 0.278412 -0.173226 -0.512381 0.585009 -0.508497 -0.175178 -0.000808 -0.608221 0.141838 -0.230415 0.084640 0.241141 0.744172 0.066490 -0.261209 
w12439 -0.066840 0.265025 0.537399 0.042881 -0.120555 -0.072063 0.235955 0.074288 0.059777 -0.083041 -0.013612 0.133933 -0.663424 0.010593 0.006215 0.499880 0.113525 0.001112 0.148322 0.179611 -0.065436 -0.114348 0.278886 -0.210789 0.192714 0.044137 0.005315 0.041439 0.100793 -0.156616 -0.288656 0.118653 -0.101568 -0.241674 -0.139732 0.061675 0.324330 0.050450 0.266127 -0.413890 -0.099929 0.089289 -0.152995 0.241967 -0.126780 0.208167 0.083131 0.237531 -0.389049 -0.014767 
c192 -0.890022 -0.893778 -0.249439 0.069378 -0.208899 0.799315 0.827505 -0.562884 0.758077 0.208521 -0.068081 0.690666 -0.961107 -1.144351 -0.683743 0.395187 -0.055538 0.167613 1.037289 -0.044358 -0.144194 -0.146156 1.216786 -0.168736 -0.248279 0.297157 0.735682 0.497856 -0.695131 0.041654 -0.626490 0.069663 -0.167558 0.025271 -0.121151 0.512661 0.239139 -0.424012 1.020347 -1.227550 0.401098 0.700365 0.314958 -0.398529 -0.070057 0.216955 -1.092272 0.968841 -0.595574 0.279295 
c671 -0.343720 0.259533 0.470162 -0.229852 0.506683 -0.068732 0.595240 -0.348558 0.253517 0.244660 -0.112140 0.500912 -0.379884 -0.439653 -0.310326 0.104940 0.668473 -0.452751 0.104461 -0.201837 -0.400150 0.112091 0.938641 0.111000 -0.279122 -0.579385 0.239169 0.194373 0.041604 -0.203277 -0.031473 -0.169204 -0.468779 0.185860 -0.004918 0.312617 -0.116990 0.065047 0.556115 -0.129456 0.188088 -0.115319 -0.831643 0.189740 -0.109421 0.313864 0.280432 0.897027 -0.423519 -0.318413 
c42 -0.541252 -0.861174 -0.160928 -0.795754 0.132712 -0.434319 0.822869 -0.004469 0.625157 0.090633 0.072571 0.208177 -0.409579 -0.997888 -0.540057 0.366519 0.006266 -0.562203 0.350164 -0.353811 0.014865 -0.560746 1.161847 0.291366 -0.085883 -0.452502 0.892507 0.217923 -0.236400 -0.377345 -0.399281 -0.555543 -0.526583 0.346696 -0.420026 -0.062841 0.198009 -0.116111 0.337025 -0.808166 0.128491 0.720345 0.067027 -0.397887 0.427669 0.208456 -1.018411 0.631343 -0.041668 0.134186 
c370 0.097108 0.010164 0.316743 -0.132369 0.119334 -0.170473 0.401879 -0.321551 0.280425 0.261621 -0.212949 0.547576 -0.319343 -0.497068 -0.191386 0.350135 0.490528 -0.323192 0.154406 -0.456995 -0.308801 -0.123616 0.823470 0.128092 -0.395538 -0.579380 0.141821 0.258466 -0.063333 -0.329683 -0.156977 -0.465407 -0.221365 -0.017639 -0.273451 0.354942 -0.159495 -0.230925 0.561266 -0.580455 -0.152652 0.448800 -0.650984 0.211568 -0.174740 0.152274 0.011020 0.430812 0.022044 -0.108596 
c806 -0.023802 0.248346 0.384043 -0.021958 0.285293 -0.300166 0.513391 -0.436950 0.271192 0.361031 -0.260191 0.584882 -0.276188 -0.655408 -0.520772 0.505516 0.507265 -0.259746 0.214125 -0.419643 -0.278766 -0.163912 0.770647 0.147235 -0.287488 -0.520910 0.024350 0.135688 0.075059 -0.347087 0.060900 -0.316665 -0.473845 0.094372 -0.126783 0.158638 -0.087022 -0.189609 0.647962 -0.463400 0.036441 0.282937 -0.778625 0.156422 -0.142903 0.227796 0.287708 0.755749 -0.132513 -0.266764 
c129 0.424898 -0.123990 0.266877 -0.007531 0.144692 -0.049050 0.218202 -0.145559 0.356683 0.441788 -0.167345 0.556147 -0.574843 -0.838797 -0.104117 0.479261 0.412720 0.122366 -0.044576 -0.588134 -0.646561 -0.497349 0.569146 0.203105 -0.133860 -0.652320 0.148442 0.252105 0.099415 -0.143301 0.028260 -0.748567 -0.254417 -0.104128 -0.208429 0.148890 -0.306093 -0.294063 0.569249 -0.513335 -0.386628 0.047320 -0.664852 0.055256 0.168852 0.509823 0.458745 0.547780 -0.222163 -0.058339 
w1462 0.143134 0.004431 0.768804 0.104494 -0.171585 0.050791 0.502170 -0.334493 0.202900 -0.037352 0.188060 -0.423336 -0.644761 0.244973 0.359844 0.123525 0.054348 0.119085 0.243359 0.350287 -0.179505 0.033270 0.200753 -0.276631 0.247470 0.055543 0.065803 -0.081287 0.126413 0.132427 -0.246112 -0.172858 -0.435732 -0.075895 -0.061594 0.199018 0.642897 0.086502 -0.018010 -0.192724 -0.184637 0.149540 0.109284 0.031632 0.074981 0.428335 0.115454 -0.046960 -0.684236 -0.550011 
c277 -1.005617 -1.156722 -0.142162 -0.158947 -0.124790 0.806538 0.511602 -0.564139 1.221126 0.098293 0.175931 0.977936 -0.885983 -1.326303 -0.821596 0.404395 -0.337026 0.059440 0.550121 0.023527 0.041734 -0.197633 0.752090 -0.379698 0.090240 0.064794 0.256159 0.153383 0.243462 -0.048282 -0.689730 -0.194138 -0.651609 0.259234 -0.167897 0.145806 0.549139 -0.202362 0.528935 -1.002071 0.079454 0.692655 0.461392 -0.705759 -0.145855 -0.178320 -1.243144 0.580220 -0.524743 0.098900 
c331 0.214717 -0.565523 0.470958 -0.071296 0.010853 -0.403690 0.233209 -0.377357 -0.129394 -0.113226 0.033612 0.935784 -0.111634 -0.614668 -0.784538 0.795832 0.301148 -0.816837 0.625156 -0.358100 -0.469479 -0.243026 0.458104 0.184141 -0.252206 -0.052664 -0.054667 0.253129 -0.178118 -0.520684 -0.263438 -0.033941 -0.538362 0.217840 -0.290019 0.400875 0.236067 -0.342417 0.587128 -0.235429 -0.234431 0.465039 -0.504903 0.568071 0.145047 0.269831 -0.386408 -0.047333 0.127690 -0.400057 
w1076 -0.025186 -0.171931 0.484614 -0.031768 -0.099463 -0.136307 0.711789 -0.185726 0.060233 -0.313294 0.417902 -0.527956 -0.657544 0.259446 0.164425 -0.008324 0.019590 -0.066103 0.057347 0.205795 -0.215625 -0.189629 0.156527 -0.080152 0.116715 0.149793 0.054885 -0.008660 0.118918 -0.028144 -0.241299 -0.029732 -0.229881 -0.074267 0.118886 0.040785 0.841513 -0.065119 0.103693 -0.181875 -0.325025 0.108343 0.016700 0.184847 0.174622 0.477135 -0.220669 0.104691 -0.956943 -0.450355 
c285 -0.958492 -0.816275 -0.234590 -0.081521 -0.213051 0.763427 0.814458 -0.530482 0.797620 0.154437 -0.193170 0.543366 -0.998799 -1.132674 -0.610350 0.302801 -0.075110 0.413385 0.954511 0.032214 -0.034917 0.046691 1.264621 -0.127321 -0.388913 0.207797 0.634503 0.438178 -0.799403 0.111345 -0.634536 -0.093435 -0.148739 0.021226 -0.247811 0.415139 0.343255 -0.511007 0.942404 -1.244298 0.360727 0.824081 0.341641 -0.526381 -0.126482 0.368272 -1.114756 0.923044 -0.580392 0.396845 
c691 -0.148508 -1.335857 0.544308 0.127400 0.025583 -0.517868 0.893741 -0.345055 0.067617 0.085443 -0.233203 1.198660 0.566838 -0.859028 -1.280738 0.612237 1.082917 -1.305253 0.701278 -0.036657 -0.560142 -0.438504 0.966256 0.060682 -1.094084 0.300186 0.240318 0.496919 0.131064 -0.506027 -0.481248 0.177112 -0.378288 -0.244255 -0.160352 0.176338 0.170287 -0.018354 0.830986 -0.244539 0.128174 0.229836 -0.212435 0.591052 0.296741 0.859604 -0.323298 0.511751 -0.230196 -0.548574 
c231 -0.026873 -0.270617 0.224313 0.140625 0.242108 -0.117026 0.093455 0.018283 0.026124 0.636609 -0.020126 0.748208 -0.481875 -0.652514 -0.526597 0.315639 0.584185 -0.278932 -0.126989 -0.106572 -0.689474 -0.138891 0.743663 0.300893 -0.151352 -0.525076 -0.158517 0.030100 0.162656 -0.664279 0.178328 -0.476432 -0.753821 -0.101776 0.181973 0.144172 0.012492 0.037561 0.698316 -0.266122 -0.392958 0.273740 -0.890935 -0.056717 0.142185 0.371083 -0.012598 0.592893 0.084758 -0.215634 
c571 0.045430 0.014986 0.397335 -0.140045 0.258262 -0.390692 0.526562 -0.267107 0.210196 0.183743 -0.412840 0.490560 -0.348493 -0.608045 -0.371979 0.279673 0.554631 -0.251769 0.081492 -0.277780 -0.448462 -0.106869 0.898681 0.141019 -0.324647 -0.615126 0.047467 0.249184 -0.133726 -0.551539 0.029587 -0.252246 -0.338941 0.168721 -0.174905 -0.054310 -0.103279 -0.076177 0.554490 -0.382868 -0.076974 0.184521 -0.543488 0.271448 -0.061792 0.347461 0.135966 0.518584 -0.052078 -0.266502 
c181 0.048916 -0.643494 0.408826 -0.266284 0.338737 -0.438543 0.310603 -0.451936 0.146813 0.161130 0.296294 0.297678 -0.425128 -0.123822 -0.543012 0.258159 0.473606 -0.492934 0.174875 -0.089081 -0.623042 -0.072747 0.847651 0.343513 -0.330724 -0.285334 -0.105044 0.442338 -0.028316 -0.157358 0.118487 -0.022081 -0.528299 -0.090537 0.246947 0.226605 0.288882 -0.245835 0.578030 -0.038608 -0.694943 0.088136 -0.496314 0.429594 -0.151677 0.309173 -0.364830 0.484426 0.271434 0.048530 
c105 -0.513338 -0.631354 0.152614 -0.161406 -0.244070 -0.001148 0.911166 -0.202156 0.695418 0.016204 0.241507 0.495209 -0.861501 -0.904892 -0.488816 0.731409 -0.011363 0.044717 0.776064 -0.156221 0.119505 -0.335155 1.208820 0.132548 -0.200389 0.136355 0.704525 0.672034 -0.659240 0.268950 -0.388390 -0.755560 -0.081761 0.113295 -0.387424 0.187481 0.256044 -0.609075 0.477715 -1.510427 0.127501 0.643763 0.157371 -0.838854 -0.101159 0.259805 -1.273552 0.786153 -0.096295 0.362284 
c413 0.351131 -0.231146 0.181753 -0.233292 0.395153 0.234162 0.581848 -0.278996 0.427549 0.308403 -0.319217 0.098916 -0.396240 -0.530850 0.107173 -0.281774 0.528698 -0.532713 0.150099 -0.713729 -0.057678 -0.126275 0.502136 0.223271 -0.530292 -0.566635 0.148548 0.117437 0.191203 0.139848 -0.455185 -0.812048 0.173933 -0.096769 -0.146934 -0.155593 -0.313887 -0.095286 0.725525 -0.558707 0.105327 -0.019118 -0.834415 0.458571 -0.214158 0.403574 -0.202975 0.595581 0.076739 -0.621766 
c303 0.161016 0.005608 0.465958 0.049025 0.140266 -0.606693 0.449667 -0.638543 0.445640 0.438161 -0.096506 0.448535 -0.647626 -0.641361 -0.630907 0.533548 0.389108 -0.416844 0.040609 -0.429350 -0.279374 0.006090 0.636037 0.074372 0.029041 -0.347278 -0.137513 0.452608 -0.314679 -0.303840 0.165781 -0.397422 -0.511687 0.156505 -0.044842 0.501284 -0.057451 -0.093643 0.671815 0.260985 0.179517 0.491945 -0.878640 0.209132 -0.268279 0.211890 0.078272 0.649175 -0.015475 -0.355585 
c2543 -0.156984 -0.454994 0.451734 0.036336 0.212201 -0.327914 0.232955 -0.361872 0.333214 0.181733 0.089012 0.529751 -0.345974 -0.606135 -0.526188 0.219867 0.525197 -0.189082 0.014866 -0.028981 -0.573514 0.053531 0.449792 0.186169 -0.215380 -0.170723 0.069912 0.123806 0.019994 -0.308591 0.108307 -0.416380 -0.524418 0.332499 0.187097 0.091688 -0.075014 -0.053909 0.597030 -0.199958 -0.302049 0.245434 -0.507535 0.285071 0.004967 0.464486 0.147832 0.487838 0.216568 -0.285871 
c733 0.017206 -0.131901 0.471884 -0.055405 0.155986 -0.100254 0.201236 -0.307046 0.305970 0.244719 -0.127911 0.319593 -0.565241 -0.594659 -0.505671 0.216795 0.709781 -0.183934 -0.117796 -0.231018 -0.492459 -0.094284 0.442753 0.000384 -0.360080 -0.352494 -0.026301 0.169680 -0.287656 -0.217902 0.210424 -0.487752 -0.416838 0.159154 0.024770 0.217266 -0.068967 -0.265536 0.460472 -0.111793 -0.297560 0.287477 -0.613088 0.315329 -0.105207 0.263248 0.276634 0.477504 0.268555 -0.398691 
w277 -0.019252 -0.076784 0.824063 0.116711 -0.080324 -0.014449 0.503070 -0.185349 0.204696 -0.061099 0.164668 -0.352586 -0.588434 0.164844 0.356559 0.034769 -0.009712 0.135191 0.412440 0.379554 -0.216435 0.111398 0.162497 -0.206390 0.203762 0.236572 0.013231 -0.186440 0.222821 0.094968 -0.170124 -0.135657 -0.512021 0.045303 0.181223 0.327901 0.766496 -0.049353 0.017965 -0.038861 -0.283387 0.222172 -0.079899 0.085877 0.158663 0.522227 -0.107171 0.033371 -0.614844 -0.551539 
w928 0.366062 -0.036533 0.690825 -0.018625 -0.434314 0.050409 0.687646 -0.041791 -0.059328 -0.021858 -0.057262 -0.248680 -0.500138 0.161382 0.063991 0.259696 -0.072666 0.076857 0.258805 0.496908 -0.170938 0.047954 0.130720 -0.154444 0.235907 0.151109 -0.072025 -0.244853 0.066502 0.054805 -0.524664 -0.080865 -0.563821 -0.052168 -0.231236 0.428867 0.768033 0.443917 -0.078644 -0.462196 -0.159521 0.096562 0.237066 0.092855 0.200773 0.414675 0.008443 -0.099968 -0.540367 -0.606719 
w930 0.155548 -0.158445 0.748597 0.054008 0.048334 0.117638 0.451450 -0.153945 0.325560 -0.024789 0.187510 -0.357687 -0.669343 0.188365 0.246826 0.230239 -0.042288 0.139930 0.124629 0.295738 -0.036493 0.211010 0.270530 -0.323525 0.245441 0.006464 -0.194027 -0.286720 0.004248 -0.045964 -0.334263 -0.003273 -0.444624 -0.088392 0.051458 0.218598 0.673657 -0.168992 -0.006534 -0.155696 -0.178437 0.373162 -0.136053 -0.044961 -0.062995 0.388974 -0.169110 -0.290702 -0.753115 -0.668014 
c98 -0.835607 -1.388518 -0.116226 -0.716963 0.064528 0.231076 0.679001 -0.080259 1.263748 0.018337 0.148398 0.810956 -0.893392 -1.426106 -0.644938 1.024655 -0.118333 -0.196176 0.371947 -0.441190 0.262444 -0.158042 1.447762 -0.383987 0.273762 -0.186775 0.699068 0.326691 -0.073517 -0.160901 -0.571881 -0.097299 -0.737361 0.620710 -0.273603 0.105989 0.295205 -0.544598 0.533573 -1.288141 0.143999 0.969456 -0.105140 -0.814914 -0.048519 0.073146 -1.243224 0.775464 -0.157999 0.135340 
c431 0.213736 0.071423 0.496874 -0.192191 0.180345 -0.084972 0.267697 -0.494137 0.337229 0.254756 -0.419005 0.445053 -0.419975 -0.694646 -0.350119 0.524815 0.263020 -0.070984 0.044557 -0.321994 -0.298772 -0.389032 0.854242 0.033951 -0.503910 -0.611457 0.037465 0.290792 -0.257948 -0.272151 0.082531 -0.114133 -0.318556 0.161517 -0.199592 0.162729 -0.307037 -0.336175 0.639378 -0.381825 -0.080022 0.374927 -0.589775 -0.039205 0.029893 0.181446 0.273857 0.748591 -0.151266 -0.182671 
c71 0.226608 -0.098986 0.108925 0.152878 0.037154 -0.410202 0.294070 -0.422956 0.533359 0.439556 -0.301168 0.479061 -0.437667 -0.753751 -0.656057 0.686463 0.473535 -0.134667 -0.213428 -0.329709 -0.453254 -0.293059 0.642015 -0.013656 -0.380742 -0.267833 -0.165627 -0.116871 0.142757 -0.375962 -0.174678 -0.582075 -0.290045 0.143389 -0.098349 0.240361 -0.552429 -0.062526 0.179182 -0.886300 -0.263791 0.402421 -0.312178 0.092354 0.224589 0.498319 0.340175 0.277964 0.445142 -0.380323 
w863 0.133179 -0.053143 0.803132 0.129597 -0.051433 0.063023 0.525793 -0.183574 0.229517 0.006455 0.062295 -0.285004 -0.607477 0.237937 0.422750 0.294302 0.026184 0.157451 0.131689 0.434830 -0.105254 -0.116835 0.239963 -0.102491 0.061483 0.104477 0.057415 -0.057500 0.241175 -0.035451 -0.230224 0.099532 -0.269655 -0.070490 0.056488 0.166447 0.677755 0.024285 -0.063633 -0.103110 -0.227197 0.255867 -0.066955 -0.125416 0.176954 0.531689 0.025507 -0.036270 -0.599640 -0.511701 
c488 0.241543 0.148354 0.329726 -0.207658 0.092321 0.279761 0.377361 -0.101062 -0.082023 0.371508 -0.241343 0.189572 -0.442137 -0.679549 -0.214117 0.333196 0.600770 -0.458529 0.497877 -0.516619 -0.196108 0.030103 0.743348 0.166135 -0.341452 -0.702000 0.304483 -0.084674 -0.158543 -0.636293 -0.164513 -0.365503 -0.126175 0.339601 0.014025 -0.013233 -0.448954 -0.116151 0.845146 -0.352982 -0.382358 0.353742 -0.836569 0.159467 -0.354692 0.154718 0.018816 0.416220 -0.019324 -0.513412 
w474 0.278562 -0.090032 0.642132 -0.019310 -0.351585 0.149287 0.447920 -0.134744 0.034555 -0.116651 0.105722 -0.302941 -0.492756 0.170466 0.069202 0.185364 0.069040 0.058599 0.056496 0.633974 -0.014486 -0.133214 0.329441 -0.233584 0.188637 0.105046 -0.066367 -0.132871 0.197836 0.047851 -0.357133 -0.158783 -0.407892 -0.061431 -0.134119 0.176657 0.515219 0.239705 -0.172973 -0.497583 -0.272180 0.140491 0.121877 -0.004284 -0.002487 0.423316 0.020046 0.107563 -0.489132 -0.278279 
c8 -0.087174 -0.049135 0.363583 -0.115133 0.334248 -0.497597 0.174174 -0.644761 0.169222 0.200690 -0.204821 0.608374 -0.226926 -0.525726 -0.500750 0.595800 0.318125 -0.136454 0.072600 -0.155458 -0.608899 -0.427235 0.417939 0.017707 -0.207536 -0.259448 -0.222248 -0.011492 0.056259 -0.163146 0.140963 -0.688668 -0.860393 0.400896 -0.013407 0.329142 -0.128230 -0.004212 0.516386 -0.350903 -0.187445 0.263693 -0.675227 0.259054 0.131204 0.405613 -0.131598 0.631026 0.173193 -0.160794 
w33 0.145958 -0.366969 -0.025248 -0.298829 -0.190810 0.032026 0.277796 -0.411142 0.553226 -0.532361 0.657087 -0.541127 -0.298638 0.161141 -0.248472 0.096232 -0.325794 0.118489 0.069889 -0.128488 0.006951 -0.198774 -0.103493 -0.211036 -0.332519 0.185379 -0.113295 -0.041233 -0.037505 -0.477981 -0.143064 0.121377 -0.190998 -0.010700 0.557432 -0.228085 0.258801 0.540823 -0.162330 -0.605969 -0.516707 0.562522 -0.197676 -0.190988 0.823967 0.376543 -0.140725 0.084250 -0.332204 -0.589942 
c95 -0.758889 -1.181440 -0.099803 -0.898196 0.137772 -0.302579 0.816310 -0.287122 0.600857 0.001653 -0.019371 0.622048 -0.186727 -1.020560 -0.614771 0.556258 0.506551 -0.492649 0.351243 -0.271489 -0.258655 -0.581876 1.174340 0.401107 -0.383431 -0.155327 0.939397 0.235951 -0.290566 -0.399637 -0.485960 -0.651878 -0.572380 0.026508 -0.075473 -0.083534 0.189280 -0.681635 0.407752 -1.182707 -0.115001 0.861818 0.134901 -0.433964 0.296905 0.126336 -1.329129 0.359246 -0.212889 -0.077715 
c817 -0.228336 0.204123 0.513966 -0.038225 0.376597 -0.119481 0.355080 -0.401534 0.626612 0.471551 -0.435225 0.751116 -0.543055 -0.452197 -0.356884 0.236678 0.441045 -0.468185 0.219310 -0.296544 -0.279135 0.215644 0.878933 0.158265 -0.466710 -0.766989 0.034221 -0.151637 -0.105396 -0.080343 0.183050 -0.036667 -0.391107 0.287917 0.197627 0.181367 -0.224258 0.034125 0.545111 -0.298873 -0.106635 0.018128 -0.444348 0.221707 -0.035914 0.430383 0.222723 0.678055 -0.121184 -0.487662 
c104 -0.551791 -0.713007 0.147539 -0.620431 -0.074696 -0.318421 0.783921 0.217424 0.839240 -0.070915 0.444389 0.530305 -0.784706 -0.999155 -0.397394 0.855005 -0.055045 -0.202637 0.195203 -0.337843 0.287511 -0.502511 1.067293 0.175104 0.121905 -0.062498 0.723710 0.641864 -0.157739 -0.154811 -0.540571 -0.943159 -0.512514 0.349751 -0.673438 -0.076200 0.271046 -0.098584 0.063750 -1.380364 -0.077061 0.491935 0.191397 -0.901747 -0.005272 0.177891 -1.031571 0.847797 0.315861 0.041163 
c675 0.188517 -0.186781 0.401176 -0.348083 0.181043 0.121691 0.653767 -0.437309 0.100095 0.074065 -0.170514 0.456305 -0.397751 -0.710573 -0.037609 0.010308 0.561346 -0.337130 0.098928 -0.649114 0.068705 -0.145314 0.499484 0.268561 -0.419651 -0.351382 0.139431 -0.044286 -0.246542 -0.036772 -0.132360 -0.429840 -0.206357 0.208299 -0.207852 0.141087 -0.232837 -0.198757 0.629836 -0.587462 0.087429 0.240959 -0.547081 0.381502 0.041181 0.280935 0.110882 0.482062 0.339773 -0.472396 
w110 0.485399 0.391367 0.422488 -0.058890 -0.412895 -0.000045 0.483469 -0.129460 0.091301 -0.322057 0.045284 -0.465299 -0.900107 0.082798 0.224512 0.279174 0.303259 0.326438 0.122190 0.140231 -0.013485 -0.141345 0.136070 -0.073288 0.306428 0.169500 0.131344 -0.193642 0.209693 -0.129854 -0.370841 0.081356 -0.104868 -0.055545 0.054209 -0.184738 0.306107 -0.114476 -0.071637 -0.731398 -0.478571 0.061462 0.341654 0.081183 0.230125 -0.026824 0.119454 0.161723 -0.213042 -0.374816 
c392 0.178566 0.239525 0.367010 -0.153540 0.214559 -0.198186 0.286797 -0.372844 0.303191 0.218581 -0.273658 0.522863 -0.508850 -0.574295 -0.399554 0.498289 0.402552 -0.274595 0.130911 -0.346583 -0.245052 -0.175179 0.736625 -0.047346 -0.279234 -0.525743 -0.127790 0.014907 -0.086815 -0.230019 0.123460 -0.374442 -0.326376 0.206508 -0.135884 0.229640 -0.132303 -0.278910 0.641812 -0.506448 -0.019654 0.432680 -0.585929 0.454388 -0.274397 0.050897 0.002023 0.501417 0.057209 -0.217604 
c839 -0.309379 -0.138692 0.572488 0.074932 0.352366 -0.289567 0.780764 -0.397265 0.477989 0.487270 -0.409737 0.846543 0.117926 -0.625584 -0.541228 0.235286 0.783321 -0.501933 0.348768 0.259223 -0.299667 0.094126 1.008996 0.217743 -0.766067 -0.463983 -0.152691 -0.125330 0.235275 -0.491599 0.131086 -0.129821 -0.539510 0.017394 0.282374 0.070294 0.059241 0.143961 0.339445 -0.115858 0.125094 -0.110707 -0.593135 -0.080788 0.223145 0.512670 0.113964 0.950636 -0.133881 -0.414091 
c223 0.293729 -0.122801 0.196396 0.027184 0.097863 -0.216582 0.229273 -0.416133 0.390848 0.191373 -0.432898 0.390419 -0.395373 -0.470788 -0.292022 0.522253 0.402158 0.033685 -0.152569 -0.476674 -0.551125 -0.253610 0.636438 0.159505 -0.305829 -0.289407 -0.123231 0.083548 -0.065104 -0.294717 0.141151 -0.529870 0.164552 0.058468 0.106327 0.484644 -0.043032 -0.177779 0.648649 -0.687578 -0.548185 0.481403 -0.498767 0.267445 0.124429 0.342395 0.316301 0.061804 0.352988 -0.052939 
c625 0.132743 -0.421927 0.440818 -0.327874 0.203364 -0.189353 0.608088 -0.575774 0.145721 0.203142 -0.248459 0.755832 0.017633 -0.613641 -0.369038 0.372876 0.554207 -0.864717 0.392585 -0.221847 -0.498082 -0.180009 0.544685 0.170684 -0.533363 -0.530831 0.192565 0.134160 0.246302 -0.175589 -0.196140 0.007252 -0.366410 0.146132 0.055038 0.285353 -0.017948 -0.207037 0.547513 -0.084769 -0.028683 0.480192 -0.665488 0.478445 -0.002351 0.401400 0.190161 0.341454 -0.207915 -0.398196 
w813 0.134437 0.047591 0.648319 0.093123 -0.053671 0.130539 0.539816 -0.131637 0.206633 -0.223890 0.172570 -0.423809 -0.634724 0.295299 0.261454 0.187187 0.105465 0.134334 0.012732 0.318275 -0.071808 0.013847 0.204571 -0.355906 0.147275 0.041863 -0.033065 -0.095519 0.131958 0.026058 -0.253220 0.196623 -0.264369 -0.042012 0.062192 0.086163 0.410349 0.130362 -0.055880 -0.341170 -0.260752 0.103789 -0.050207 -0.014667 0.149909 0.355496 -0.226847 0.179114 -0.464159 -0.690566 
w616 0.271437 -0.219146 0.937548 0.185326 0.137601 0.481403 0.511109 -0.393841 0.038009 0.001301 0.110787 -0.783725 -0.732804 0.188926 0.418390 -0.100612 0.280560 -0.104431 -0.056914 0.399943 0.053307 0.087245 0.242684 -0.244753 -0.066925 0.506972 0.474392 -0.348726 0.074327 0.121817 -0.295431 0.198579 -0.425089 0.216466 0.299829 0.089215 0.101107 -0.155763 0.021669 -0.246851 0.108797 0.315042 0.041026 0.141167 0.103590 0.639354 -0.663530 0.004265 -0.384592 -0.719934 
c267 -0.301463 -0.132588 0.627071 0.220878 0.152393 -0.287929 0.047783 -0.566964 0.462305 0.300931 0.137642 0.232856 -0.326830 -0.294109 -0.586732 0.120428 0.493093 -0.469170 -0.075449 0.243268 -0.813794 -0.209580 0.361277 -0.217786 0.080688 -0.206756 0.077547 0.377291 -0.302020 -0.316695 0.406702 -0.354840 -0.934109 0.423547 0.394790 0.226224 0.309079 -0.000382 0.245310 0.262422 -0.160192 0.355253 -0.538908 0.303472 -0.117001 0.163059 -0.124727 0.369532 0.047296 -0.437547 
c76 0.076717 -0.097961 0.569400 -0.239225 0.452787 -0.205094 0.343546 -0.011090 -0.108592 -0.232256 -0.097593 0.655239 -0.157370 -0.796992 -0.184754 0.475933 0.597214 -0.417526 0.469639 -0.065016 -0.112666 -0.244023 1.097283 0.864254 -0.713485 -0.175633 0.045170 -0.027056 -0.154905 -0.242097 -0.021314 -0.083543 -0.097758 -0.035823 -0.007987 0.230179 -0.209964 -0.216022 0.893622 -0.463638 -0.105694 0.190585 -0.366002 -0.061540 -0.061178 1.005654 0.058139 0.764220 -0.170859 -0.021895 
c212 0.157161 -0.279461 0.162409 -0.490406 0.130764 0.006780 0.638594 -0.464342 -0.209003 0.237941 0.300388 0.670312 -0.940125 -0.632606 -0.209388 0.396190 0.668527 -0.045048 0.118095 -0.388172 -0.504055 0.039704 0.600853 0.263091 -0.178157 -0.879555 -0.008437 -0.194386 -0.286281 -0.072736 -0.184961 -0.057991 -0.042070 0.114639 -0.039368 0.290711 -0.545489 -0.224762 0.605904 -0.652174 -0.540541 0.119865 -0.316238 0.287561 -0.096219 0.211438 0.218293 0.380298 -0.072576 -0.107045 
c759 -0.320173 0.578488 0.544663 0.144229 0.332473 -0.178576 0.519339 -0.215929 0.327936 0.310565 0.115796 0.694383 -0.384189 -0.242234 -0.450793 0.326960 0.396953 -0.678948 0.296902 -0.220194 -0.373857 0.221856 0.935973 0.099811 -0.366510 -0.693832 0.001181 -0.330926 0.163272 -0.481447 0.390949 -0.322484 -0.118686 0.106501 0.144962 0.430626 -0.412387 -0.073858 0.673362 -0.270216 -0.106139 0.311919 -0.537161 0.323554 -0.158179 0.221371 0.124870 0.786151 -0.097769 -0.516215 
w686 0.334233 -0.150862 0.614190 0.129772 -0.280413 -0.066257 0.686146 -0.184920 0.150688 -0.396904 0.285932 -0.463465 -0.599588 0.240318 0.246770 0.232428 -0.024177 0.136832 0.266988 0.149959 -0.076958 0.014608 0.268655 -0.186095 0.186300 0.130864 0.019304 -0.174922 0.080971 0.000645 -0.155561 0.151625 -0.199627 -0.253291 0.208419 0.077940 0.571360 0.041001 0.024905 -0.196433 -0.310937 0.352107 -0.087311 -0.080638 0.182603 0.532742 0.015272 0.069712 -0.663478 -0.390887 
c865 -0.207561 0.195855 0.647369 0.004301 0.409716 -0.146453 0.435758 -0.124445 0.405208 0.215389 -0.212485 0.469294 -0.474089 -0.419940 -0.430604 0.322301 0.463287 -0.337370 0.080551 -0.255274 -0.265305 0.226632 0.715193 -0.087913 -0.257049 -0.542791 0.162217 0.247530 -0.004155 -0.385632 -0.004929 0.135107 -0.338224 -0.096314 0.006453 0.113962 -0.046142 -0.156529 0.594503 -0.068233 -0.106619 0.193642 -0.519433 0.279194 -0.119829 0.150724 0.199163 0.589233 -0.381601 -0.186144 
c363 -0.115960 0.177461 0.883094 0.003795 0.705464 -0.380492 0.413114 -0.430140 0.402997 0.250363 -0.230717 0.783126 -0.636682 -0.786850 -0.560349 0.278954 0.563875 -0.458245 0.041927 -0.523248 -0.541057 0.109996 0.595770 -0.100909 -0.530512 -0.821289 0.053263 0.546654 -0.242359 -0.520882 -0.065138 -0.257459 -0.235152 0.200994 -0.016786 0.142795 0.009714 -0.314597 0.411933 -0.293815 -0.157528 0.242152 -0.714167 0.323174 -0.207909 0.214946 0.256933 0.520980 -0.255131 -0.219583 
c428 -0.010906 -0.361278 0.206876 0.353260 0.304473 -0.394817 0.162120 -0.074605 0.202656 0.370807 -0.058549 0.787769 -0.565382 -0.937659 -0.091423 -0.148570 0.674289 -0.159317 0.138137 -0.042540 -0.862618 -0.320202 0.598387 0.034538 0.069961 -0.324166 0.102210 0.077714 0.398260 -0.176958 -0.024778 -0.716964 -0.683277 0.175139 0.447392 0.407746 0.057636 0.031663 0.915013 -0.165927 -1.027701 -0.214678 -0.645952 -0.100383 0.193746 0.686442 0.099089 0.430704 0.437932 -0.058183 
c636 0.093457 -0.413109 0.351869 -0.156450 0.308291 -0.688794 0.166495 -0.247551 0.241484 0.051447 -0.004307 0.559177 -0.215306 -0.355942 -0.677851 0.645731 0.152747 -0.844131 0.448444 -0.463309 -0.612949 -0.004165 0.845808 0.110592 -0.251008 -0.065293 -0.316171 0.388777 -0.076111 -0.112039 -0.119337 -0.107680 -0.374165 0.006846 -0.314480 0.158323 0.229599 -0.162935 0.639123 -0.296555 -0.301436 0.566240 -0.662900 0.532807 -0.226693 0.248992 -0.232852 0.134958 0.068482 -0.212409 
c186 -0.793662 -1.115077 0.132463 -0.273802 0.014333 0.524140 0.907924 -0.337609 1.680528 -0.119607 0.375941 1.181083 -1.201769 -1.474224 -0.745618 0.798471 -0.468112 0.073793 0.291709 -0.349937 0.283150 -0.176369 1.024969 -0.346601 0.199401 -0.113604 0.408631 0.134000 0.122954 -0.165970 -0.568858 -0.357854 -0.573353 0.476817 -0.273562 0.343996 0.203587 -0.124671 0.059760 -1.411487 0.238458 0.791405 0.145638 -0.764833 -0.353273 -0.102757 -1.350020 0.704328 0.125298 0.164960 
c90 0.201018 0.024819 0.322658 -0.271608 -0.030522 -0.176324 0.354814 -0.171308 -0.131526 0.010822 -0.211216 0.587652 -0.453020 -0.759562 -0.405388 0.472415 0.272189 -0.247031 0.330508 -0.224711 -0.118935 -0.283440 0.736921 0.393750 -0.184626 -0.489484 -0.114522 -0.146364 0.042587 -0.090355 -0.133911 -0.414180 -0.219948 0.065889 -0.120602 0.323433 -0.186695 -0.243287 0.802860 -0.469639 -0.319448 0.355204 -0.322217 0.483677 -0.175609 0.455654 0.090747 0.471950 0.164428 -0.119843 
c145 -0.499660 -0.670798 0.242440 -0.638963 0.036180 -0.481743 0.617848 0.153337 0.835734 0.142837 0.399040 0.549877 -0.699474 -0.793985 -0.325794 0.651385 0.093157 -0.268993 0.129578 -0.290948 0.163899 -0.336007 0.817920 0.046785 0.042910 -0.233843 0.724006 0.535339 -0.169596 -0.106384 -0.476953 -0.725987 -0.572427 0.228012 -0.317282 0.209054 0.135194 -0.338297 0.137754 -1.267487 -0.064176 0.462207 -0.026745 -0.733516 -0.055824 0.265957 -1.071772 0.629463 0.488025 0.222409 
c83 -0.073495 -0.665989 0.357200 -0.102635 0.185082 -0.728173 0.263061 -0.200102 0.092402 0.010137 0.125530 0.586753 0.248765 -0.562810 -1.180376 0.589982 0.449528 -0.870675 0.215538 -0.159413 -0.443353 -0.154083 0.810600 0.176617 -0.255464 -0.290310 0.076446 -0.060257 0.128858 -0.512991 0.194266 -0.690712 -0.672386 0.086017 -0.005756 0.366794 0.733415 -0.747158 0.486987 -0.247302 -0.106375 0.561199 -0.558464 0.580528 -0.171366 0.610356 -0.177135 0.657643 -0.040105 -0.322955 
c299 -0.072110 -0.152971 0.619277 -0.017857 0.472828 -0.031276 0.435504 -0.176719 0.343932 0.310040 -0.133858 0.669940 -0.347482 -0.789170 -0.595511 0.429728 0.563793 -0.498881 0.340702 -0.467192 -0.307890 0.001660 0.731313 0.060124 -0.317274 -0.406375 0.010596 0.622487 -0.058661 -0.423444 -0.033952 -0.044859 -0.261733 0.073212 -0.045143 0.255153 0.271835 -0.248052 0.553683 0.261997 0.302727 0.656939 -0.860538 0.415402 -0.247555 0.305036 0.046746 0.469285 -0.217031 -0.607361 
c452 -0.035362 -0.036563 0.179714 -0.196117 0.080082 -0.480022 0.433763 -0.295896 0.176270 0.153266 -0.173730 0.664717 -0.362247 -0.531421 -0.173322 0.393572 0.490705 0.026266 0.366205 -0.202323 -0.611329 -0.342772 0.466232 0.256080 -0.302227 -0.495770 -0.085769 -0.039496 -0.060836 -0.267606 0.015376 -0.619801 -0.581074 0.073845 -0.259278 0.057631 -0.321360 -0.027728 0.675194 -0.472650 -0.123683 0.328227 -0.630626 0.223678 -0.187512 0.483393 -0.038213 0.563399 0.136671 -0.137405 
c59 0.148936 -0.309275 0.412313 -0.075614 0.297297 -0.029234 0.826156 -0.343334 0.499848 0.497338 -0.181595 0.283933 -0.128095 -0.583477 -0.174714 -0.519345 0.508765 -0.457377 -0.036897 -0.684875 -0.263599 -0.261049 0.488488 0.273707 -0.524916 -0.329799 0.386650 0.274913 0.003301 -0.192230 0.077945 -0.716938 -0.394747 0.433429 0.102749 0.058734 -0.241648 -0.192841 0.524594 -0.108109 0.174917 0.378523 -0.815879 0.350038 0.011482 0.420781 -0.262615 0.654763 0.333132 -0.940492 
c540 0.524712 -0.414088 0.267899 -0.317362 0.104198 -0.371205 0.376409 -0.398380 0.036346 0.339171 -0.253038 0.166145 -0.468604 -0.554009 0.010276 0.707115 0.655169 0.274259 -0.030958 -0.353319 -0.704851 -0.545158 0.656073 0.207413 -0.141842 -0.375648 0.026357 0.227429 -0.096572 0.074283 -0.035913 -0.266118 -0.351518 0.254061 0.061095 0.433300 -0.660725 -0.211441 0.653809 -0.762609 -0.518734 0.366219 -0.539368 0.414256 0.231834 0.582043 0.161796 0.041722 0.549468 -0.088391 
w642 0.180796 0.176127 0.515250 0.497562 0.133567 -0.251587 0.869730 -0.017170 0.140123 0.081960 0.077901 -0.360704 -0.565426 0.417061 0.392151 0.259832 -0.019441 0.126799 0.299412 0.379781 -0.044080 -0.172107 0.249946 -0.090380 0.155299 0.010378 0.086784 -0.072814 -0.126518 0.021269 -0.117191 0.034335 -0.279006 -0.351087 0.022952 0.332297 0.715426 0.129692 0.098605 -0.191878 0.003747 0.175260 -0.477846 0.222725 -0.065113 0.451893 -0.025846 0.119041 -0.867658 -0.333607 
c248 -0.949290 -0.626023 -0.031416 -0.224598 -0.404332 0.224101 1.063980 -0.093589 0.627649 0.189651 0.227287 0.331348 -0.843199 -0.903774 -0.451590 0.325402 0.051344 0.110032 0.914319 0.058423 0.032528 -0.191861 1.330425 0.071443 -0.422928 0.308542 0.800946 0.642447 -0.786077 0.071930 -0.349077 -0.757941 -0.075987 -0.027215 -0.317092 0.302857 0.400393 -0.493009 0.629302 -1.384970 0.060087 0.524086 0.135523 -0.670262 -0.017417 0.374801 -1.222894 0.954009 -0.205224 0.381738 
c415 0.533509 -0.077304 0.274403 -0.390040 0.001322 -0.121924 0.095460 -0.226264 0.638713 -0.011873 -0.311365 0.588859 -0.606825 -0.683127 -0.211390 0.577242 0.356395 0.234677 -0.057790 -0.436058 -0.308171 -0.193696 0.441371 0.319406 -0.244361 -0.482397 0.016784 0.159423 -0.186628 0.071811 -0.184913 -0.736910 -0.025499 0.010500 -0.182256 0.450314 -0.437169 0.074675 0.590393 -0.870923 -0.180206 0.247822 -0.379075 -0.157268 -0.156928 0.331518 0.362984 0.474135 0.371203 -0.297729 
c62 0.303818 -0.047963 0.968271 0.402825 0.169755 -0.447201 0.316193 0.114168 0.223690 0.838741 -0.179390 0.582495 -0.819779 -0.776508 -0.496820 0.312539 0.871519 -0.101781 0.515776 -0.405628 -0.732203 -0.105249 0.564640 -0.170193 -0.406703 -0.511768 0.311948 0.274794 0.288695 -0.455052 -0.365982 0.345343 -0.050333 0.302504 -0.119028 0.257920 0.195885 -0.519405 0.416539 0.775965 -0.326922 0.504296 -0.616682 0.187004 -0.028259 0.405958 0.053540 0.543446 -0.414516 -0.201014 
c504 -0.080401 -0.044753 0.179264 -0.191126 0.506492 0.070482 0.373698 -0.501142 0.244199 0.310986 -0.194365 0.391368 -0.432029 -0.591282 -0.194458 0.275325 0.571617 -0.269529 0.095079 -0.334752 -0.398578 -0.050786 0.564079 0.130681 -0.317157 -0.478613 0.046306 0.248193 -0.158465 -0.293432 0.138177 -0.291385 -0.421635 0.226921 0.096969 0.163640 -0.164057 0.015503 0.666362 -0.357535 -0.232994 0.110555 -0.716007 0.153166 -0.085220 0.527213 0.206358 0.723686 -0.165823 -0.074665 
c275 -0.071248 0.013875 0.170654 -0.191515 -0.073692 -0.099455 -0.049176 -0.030017 0.267099 0.286990 -0.078060 0.534477 -0.410384 -0.388795 -0.137208 0.434603 0.321734 -0.209264 -0.160166 -0.405411 -0.618278 -0.051093 0.980242 0.159775 -0.358607 -0.697707 -0.070367 0.061533 -0.109137 -0.390347 0.132019 -0.374555 -0.217389 0.245409 0.006363 0.532688 -0.165216 -0.105957 0.578860 -0.802308 -0.589556 0.255747 -0.800169 -0.054425 -0.102077 0.656414 0.258076 0.628553 0.051184 -0.200288 
w307 0.076724 -0.259479 0.648509 -0.010936 -0.261645 0.137034 0.278495 -0.182838 0.289898 -0.374842 0.188507 -0.523046 -0.408591 0.158603 0.310457 -0.020406 -0.075909 -0.053517 0.060056 0.039683 0.025057 0.052941 0.226025 -0.167120 0.089527 0.107211 -0.063806 -0.052658 0.171187 0.121793 -0.210583 -0.042730 -0.349370 -0.034670 0.079547 -0.028510 0.650543 0.008211 0.081909 -0.306100 -0.169608 0.110138 -0.028167 -0.117916 0.153047 0.561130 0.046091 0.146406 -0.390681 -0.540563 
c153 0.054310 0.318569 0.095842 -0.087865 0.156219 0.236296 0.223903 -0.425429 -0.095072 0.151353 -0.571484 0.086895 -0.674105 -0.824942 -0.325533 0.429562 0.202632 0.156330 0.378435 -0.162470 0.091479 -0.073690 1.009859 0.302438 -0.298637 -0.456387 0.386677 0.020049 -0.308797 -0.106921 -0.368819 0.319611 -0.003588 -0.319270 -0.217852 0.206940 -0.256647 -0.398767 0.764848 -0.600547 0.104927 0.648463 -0.497162 0.409019 -0.235590 0.306784 -0.002336 0.935651 -0.245177 0.057304 
c200 0.198448 -0.645242 0.109726 -0.251897 -0.493569 0.444427 0.280666 -0.371581 0.024986 0.222230 0.310378 0.329089 -0.426356 -0.702050 0.019772 0.267760 0.590907 -0.208312 0.178128 -0.715299 -0.546554 -0.147804 0.556175 0.637076 -0.215209 -0.714303 0.414337 -0.240010 0.041352 -0.012152 -0.472539 -0.329840 -0.152435 0.127971 -0.051706 0.036665 -0.761911 -0.193157 0.623143 -0.907169 -0.655574 0.319383 -0.258361 0.129852 0.160675 0.113768 0.348028 0.307615 0.422437 -0.327976 
w58 0.086679 -0.182203 0.225323 -0.134794 -0.156654 -0.100815 0.094293 -0.091961 0.223548 -0.207633 0.441002 -0.200256 -0.572324 0.034687 0.162542 0.349542 -0.408814 -0.140058 0.442149 -0.125886 0.157615 0.026180 0.257453 -0.118381 0.080163 0.168898 -0.094071 -0.169610 0.095889 -0.211693 -0.172062 0.138976 -0.305763 -0.160720 0.380827 -0.040048 0.460166 0.081574 0.036766 -0.380612 -0.047052 0.200212 -0.202123 -0.127321 0.306905 0.322764 -0.186992 0.192566 -0.521468 -0.214140 
c317 0.208426 -0.149425 0.358383 -0.303015 0.040014 -0.062695 0.208728 -0.440374 -0.362026 0.035818 0.119241 0.596958 -0.583695 -0.442698 -0.106443 0.663494 0.268423 0.076727 0.126614 -0.092736 -0.241284 -0.217593 0.935099 0.329098 -0.135863 -0.491442 0.227721 -0.008895 0.122865 -0.218829 -0.231279 -0.328372 -0.479678 0.105361 -0.034694 0.284629 -0.473953 -0.216931 0.693327 -0.868169 -0.432417 0.104955 -0.232877 0.385593 -0.148023 -0.010231 0.193615 0.394926 0.447964 -0.331996 
c19 -0.069662 -0.146142 0.302068 0.081632 0.353424 -0.137501 0.195637 -0.099953 0.253124 0.281629 -0.092339 0.419685 -0.611135 -0.587953 -0.565022 0.135088 0.412154 -0.442107 0.072979 0.039251 -0.800023 -0.153451 0.572330 -0.097794 -0.197682 -0.220855 -0.326486 0.290149 0.002985 -0.392021 0.132114 -0.521452 -0.398003 -0.115219 0.280970 0.524682 0.017619 -0.110045 0.797995 -0.248464 -0.173952 -0.023865 -0.652296 0.043955 -0.168428 0.514232 0.232934 0.457540 0.155416 -0.181928 
w644 0.127465 -0.169247 0.407237 -0.026740 -0.272709 -0.048036 0.471547 -0.217744 0.315597 -0.482420 0.254899 -0.447541 -0.663975 0.129660 0.125815 0.166617 -0.156881 0.077153 -0.022335 0.111568 0.035874 -0.080991 0.164146 -0.293169 -0.024926 0.214415 -0.209887 0.059226 -0.178744 -0.242583 -0.212505 0.177165 -0.324991 -0.536348 0.357954 -0.101776 0.691665 0.130811 0.088537 0.032434 -0.105499 0.398137 -0.319958 -0.233930 0.240027 0.286740 -0.074653 0.077863 -0.412116 -0.449021 
c296 -0.204623 0.006120 0.359607 -0.266977 0.229171 -0.679617 0.378779 -0.673248 0.148006 0.205112 0.029000 0.875517 -0.360454 -0.388582 -0.462478 0.268279 0.209062 -0.434354 -0.361837 0.025273 -0.505650 0.158793 0.487428 0.389676 -0.482756 -0.235429 0.431325 0.044937 -0.229924 -0.617785 0.028191 -0.019814 -0.500013 0.317617 0.158104 0.175276 -0.303556 -0.343657 0.917294 -0.298841 -0.283025 0.463838 -1.002083 0.384811 -0.014474 0.735754 -0.143016 0.337150 0.015071 -0.426258 
c506 -0.111639 -0.236717 0.488460 0.144775 0.328749 -0.372316 0.184962 -0.277915 0.557449 0.240588 -0.163667 0.769849 -0.023729 -0.366175 -0.437537 0.245326 0.656624 -0.686796 0.133327 -0.060610 -0.563509 -0.169588 0.856047 0.070000 -0.071701 -0.522278 -0.140595 -0.148456 0.127918 -0.371676 0.349435 -0.391185 -0.575366 0.206011 0.089351 0.188860 0.051744 0.010398 0.407582 -0.363910 -0.129489 0.122579 -0.749999 0.135417 0.113436 0.227238 0.111032 0.615842 -0.024533 -0.514966 
w1613 0.163258 -0.203431 0.632994 0.140637 -0.167406 0.141656 0.700108 -0.143480 0.184309 -0.097534 0.266938 -0.544746 -0.569320 0.195172 0.302774 0.103705 -0.055215 0.095880 -0.027028 0.291682 -0.333008 0.000623 0.164551 -0.230051 0.118492 0.182047 0.158055 -0.069399 0.351762 -0.143741 -0.208420 -0.056337 -0.374503 0.074960 0.083328 -0.050295 0.468390 -0.282441 0.036450 -0.135449 -0.305236 0.142639 -0.080364 -0.022034 0.172581 0.584751 -0.233916 -0.227113 -0.535337 -0.470563 
c649 0.063990 0.229665 0.549722 0.342516 0.265159 0.088653 0.309557 -0.007714 0.004153 0.327248 -0.266565 0.345735 -0.758440 -0.631420 -0.248237 0.075406 0.677668 0.053252 0.192488 -0.237581 -0.184174 -0.073662 0.933444 -0.079761 -0.293257 -0.543176 0.265206 0.144104 0.222173 -0.497908 -0.463365 -0.163912 0.089651 0.102108 0.133081 -0.049490 0.004287 -0.475544 0.433134 -0.112651 -0.104668 0.241511 -0.837598 0.304045 -0.371872 -0.010118 0.134651 0.356962 -0.243970 -0.270918 
c361 0.420916 -0.094730 0.389572 0.026413 0.192871 -0.067513 0.849750 -0.262236 0.480055 0.398173 -0.400467 -0.016543 -0.299967 -0.879576 -0.173464 -0.466044 0.664577 -0.366438 -0.080482 -0.506801 -0.488677 -0.478365 0.851447 0.108343 -0.284712 -0.617214 -0.028022 0.463236 -0.037870 -0.199779 -0.044087 -0.953013 -0.185302 0.548724 -0.019172 0.110582 -0.186844 -0.031682 0.321710 -0.587955 0.297929 0.116257 -0.489574 0.578355 0.007331 0.228740 0.257667 0.541129 0.450852 -0.724887 
w1432 0.122824 -0.486966 0.855660 0.218180 0.217536 0.250092 0.505098 -0.295174 0.069361 0.030745 0.430363 -1.064285 -0.886453 0.005239 0.161294 -0.092752 0.099423 -0.076871 -0.203025 0.162707 -0.265786 0.133997 0.043612 -0.470274 0.009568 0.545170 0.379021 -0.371044 0.128088 -0.074696 -0.225908 0.137399 -0.512186 0.453266 0.362827 0.167181 0.255183 -0.284268 0.081887 -0.072661 0.028789 0.480058 0.024339 0.020963 0.043454 0.752634 -0.512668 -0.285839 -0.254749 -0.970817 
c423 0.372413 -0.105465 0.375074 -0.091705 0.235541 -0.522752 0.532065 -0.693843 0.668684 0.202838 -0.347299 0.489418 -0.476403 -0.609784 -0.389013 0.612607 0.009624 -0.381811 -0.356114 -0.466325 -0.398951 0.143085 0.745154 0.330516 -0.250272 -0.696011 -0.039709 -0.120723 0.176063 -0.324892 -0.154417 -0.441563 -0.250038 0.409650 -0.037819 0.186970 -0.760219 -0.243320 0.620266 -0.648030 -0.321665 0.327851 -0.410125 0.352277 0.170642 0.474164 0.088889 0.279828 0.044635 -0.022888 
c734 -0.026765 -0.016809 0.239714 0.002658 0.170555 -0.128766 0.284460 -0.043053 0.520835 0.634445 -0.024764 0.340900 -0.321323 -0.467526 -0.646536 0.201187 0.778984 -0.432613 0.065842 0.326537 -0.808455 0.295229 1.066313 0.515714 -0.523896 -0.589062 0.094937 0.267922 0.194143 -0.679341 0.295961 -0.197451 -0.595495 -0.210363 0.412060 0.051167 0.149967 -0.257828 0.940811 -0.252197 -0.384384 0.085468 -1.099555 -0.131218 0.447091 0.108480 0.184806 0.673146 -0.196946 -0.072691 
c24 0.184748 -0.527948 0.465068 0.208424 0.580412 -0.723261 0.358730 -0.263219 -0.229594 0.616845 -0.362432 0.915152 -0.786852 -0.771408 -0.057526 0.239375 0.119772 0.135881 -0.025487 -0.076182 -0.496122 -0.400068 0.915498 -0.073557 -0.285757 -0.385335 0.425996 -0.315405 0.291761 -0.557865 -0.077602 -0.042002 0.145726 0.122938 -0.021005 0.468383 -0.124926 -0.360365 0.842164 -0.163683 -0.802252 0.138896 -0.645540 0.054376 0.237391 0.465803 -0.033420 0.399331 0.061780 -0.277173 
w5823 0.211829 0.106630 0.524317 0.160648 -0.072412 -0.139891 0.278305 0.024599 0.008520 -0.110424 -0.113852 -0.224669 -0.506262 0.141992 0.138581 0.320716 -0.009341 -0.078801 0.197807 0.395734 -0.071767 -0.282103 0.330483 -0.508678 0.459883 -0.258992 -0.047562 -0.086937 -0.059763 -0.002085 -0.443370 -0.073823 -0.032029 -0.057407 -0.005079 0.309736 0.404495 0.258662 -0.010426 -0.508003 -0.156711 0.248088 0.250025 0.177746 -0.052415 0.444037 0.024817 0.167730 -0.596545 -0.215746 
c0 0.033123 -0.089464 -0.177862 -0.308902 0.225298 0.199965 0.425525 -0.291643 -0.072759 0.201524 -0.339294 0.612353 -0.667612 -0.843042 0.127087 0.255797 0.434022 0.038322 0.007314 -0.280368 -0.636179 -0.286174 0.479021 0.088974 -0.309954 -0.155871 -0.275776 0.109750 -0.340530 0.262310 0.235686 -0.438118 -0.326430 0.220788 0.005533 0.514509 -0.301981 -0.266031 0.200276 -0.537984 -0.622304 0.209091 -0.450288 0.510459 0.669047 0.497557 0.352845 0.459773 0.559331 -0.899009 
w216 0.018957 0.001253 0.708474 0.045053 -0.072536 0.140483 0.503231 -0.103342 0.211940 -0.041266 0.263417 -0.541585 -0.529452 0.177442 0.194192 0.187250 -0.155898 0.096316 0.291876 0.316069 -0.184937 0.107942 0.186262 -0.342698 0.028871 -0.027653 -0.081499 -0.202474 0.074773 -0.022355 -0.236963 0.104038 -0.371188 -0.118883 0.135955 0.270814 0.770435 -0.015408 0.065118 -0.222385 -0.270858 0.112151 -0.052811 -0.046317 0.279192 0.302892 -0.174867 -0.102880 -0.735882 -0.494526 
c459 0.213198 -0.125940 0.300374 -0.246377 0.099728 -0.063548 0.090975 -0.085934 0.174525 -0.030813 -0.102465 0.570891 -0.341614 -0.718748 -0.381474 0.438947 0.387595 -0.144294 0.293265 -0.594582 -0.390545 -0.220187 0.523866 0.247605 -0.426897 -0.282376 0.084204 0.292879 -0.109031 -0.115006 -0.164640 -0.509004 -0.169034 0.040414 -0.148060 0.317355 -0.118634 -0.261330 0.430785 -0.752966 -0.253635 0.526845 -0.605581 -0.096460 -0.116385 0.150321 0.115780 0.257780 -0.007141 -0.246809 
c268 -0.133938 0.177322 0.533410 -0.129925 0.230205 -0.390657 0.460915 -0.313514 0.276304 0.385439 -0.176170 0.752821 -0.373507 -0.500129 -0.450936 0.291176 0.549077 -0.508692 0.092355 -0.308937 -0.590448 -0.112677 0.696824 0.057308 -0.444513 -0.571755 0.119729 0.198045 -0.177480 -0.324469 0.113917 -0.241889 -0.383699 0.181070 -0.171751 0.432046 -0.025628 -0.109574 0.748303 -0.277750 -0.059779 0.259912 -0.886453 0.242129 -0.087269 0.188418 0.187436 0.673548 -0.253458 -0.350418 
c280 -0.538311 -1.043894 -0.000363 -0.171416 -0.008996 0.793556 0.514144 -0.510440 1.350529 -0.014791 0.353763 1.195538 -1.445103 -1.586555 -0.425073 0.794173 -0.406003 0.297774 0.222040 -0.176546 0.106965 -0.177627 0.862970 -0.095846 0.109046 -0.299921 0.148438 0.363343 0.157261 -0.191016 -0.712636 -0.114582 -0.383030 0.177861 -0.095393 0.526722 0.163688 -0.151622 0.363075 -0.903785 0.021213 0.993576 0.382986 -0.906682 -0.186384 -0.043194 -1.175394 0.658012 0.175193 0.226310 
c28 0.432373 -0.178912 0.247685 0.066947 0.376586 -0.136111 0.412505 -0.238102 0.165292 0.290370 -0.417945 0.590344 -0.610216 -0.809850 -0.415806 0.510369 0.247517 -0.201538 -0.064776 -0.237110 -0.937831 -0.182246 0.643993 0.550503 -0.510194 -0.461685 -0.150338 -0.004151 0.201324 -0.679166 -0.382975 -0.744671 -0.133608 -0.134740 -0.020514 0.105214 -0.130997 -0.117361 0.293748 -0.934012 -0.364787 0.196075 -0.559368 0.013209 -0.072484 0.226901 0.161602 0.152545 0.381757 -0.084676 
c49 0.012184 -0.134915 0.247681 -0.314211 0.248167 0.061752 0.478963 -0.319197 -0.033971 -0.040461 -0.264287 0.575626 -0.340037 -0.615324 -0.323315 0.443226 0.466435 -0.036408 0.203157 -0.247215 -0.331607 -0.035412 0.676868 0.279611 -0.162268 -0.473278 0.023823 0.112457 -0.022805 -0.313528 -0.070598 -0.135304 -0.161839 -0.157127 -0.009377 0.173905 -0.164753 -0.122118 0.899073 -0.566553 0.020722 0.175631 -0.520881 0.265332 -0.097303 0.491238 0.289527 0.622217 0.028672 -0.230769 
c48 0.381931 -0.068083 -0.060684 -0.333406 0.080045 -0.161262 0.538563 -0.698075 -0.075489 0.108585 -0.404361 0.058820 -1.029575 -1.042774 -0.418683 0.151287 0.089932 0.270638 -0.135889 -0.496534 -0.592851 -0.362135 0.131721 0.264548 -0.058058 -0.618046 0.007805 0.241389 0.051208 -0.003827 -0.244120 -0.529416 -0.260557 0.338809 -0.302098 0.454029 -0.281319 -0.087520 0.475135 -0.942311 -0.831113 0.117087 -0.422989 -0.071474 0.507169 0.105484 0.047314 0.325000 0.434144 0.020348 
c942 -0.654948 0.163966 0.796220 -0.138800 0.418606 -0.186149 0.856831 -0.081079 0.408018 0.239413 -0.107088 0.664852 -0.109964 -0.511974 -0.349302 -0.101767 0.904534 -0.226003 0.250262 -0.174264 -0.455562 0.392896 0.831444 0.065168 -0.344874 -0.555400 0.243313 0.185272 0.156442 -0.366482 0.217364 0.072166 -0.822745 0.046103 0.032691 -0.021491 -0.099709 0.165591 0.455808 -0.347987 0.081739 0.129260 -0.774552 0.134944 -0.009696 0.140732 0.229909 1.104772 -0.320734 -0.276875 
w2757 0.221404 0.331574 0.296860 -0.309704 -0.517046 -0.508245 0.671876 -0.191957 -0.136644 0.052896 0.431619 0.031191 -0.994186 -0.053774 -0.434426 0.128656 -0.246942 0.137439 0.629375 0.480444 -0.164539 -0.195479 0.317111 0.043606 0.440024 0.257322 -0.454419 -0.571981 -0.053472 0.106209 -0.462173 0.138867 -0.407535 0.020814 -0.417805 0.509367 0.771148 0.622068 0.316831 -0.454886 -0.439598 -0.159350 0.045703 -0.168557 0.115802 -0.011076 -0.449869 0.038633 -0.728881 -0.109873 
c197 0.123272 -0.362257 0.405316 -0.267761 0.109371 -0.012255 0.331944 -0.227335 0.143482 0.016657 0.057533 0.235305 -0.507855 -0.519380 -0.408395 0.346469 0.202197 -0.023639 0.242027 -0.254131 -0.382900 -0.151972 0.322144 0.013662 -0.051294 -0.243006 -0.353906 0.013740 -0.031765 -0.119758 0.295474 -0.350606 -0.442226 -0.296393 0.224079 0.111350 -0.092541 -0.289007 0.849543 -0.094712 -0.179641 0.031269 -0.868562 0.269937 -0.320237 0.377758 -0.076388 0.877526 -0.190660 0.293227 
c531 -0.060935 -0.152189 0.419138 -0.015147 -0.097206 -0.217617 0.205999 -0.430269 0.265756 0.275322 0.048442 -0.000305 -0.666941 -0.776097 -0.733786 0.414287 0.657384 -0.126534 0.117080 -0.031144 -0.738015 -0.233609 0.795817 0.020206 -0.222507 -0.529050 -0.532027 -0.012492 -0.439041 -0.278295 0.330429 -0.486467 -0.531715 0.115289 0.028428 0.266255 -0.047793 -0.440617 0.451643 -0.132008 -0.074024 0.492379 -0.404581 0.352734 -0.281722 0.264904 0.219729 0.560219 0.420652 -0.243918 
c476 -0.197909 -0.266017 0.508332 -0.190907 0.508228 -0.066047 0.394488 -0.135786 -0.021815 0.332128 0.303170 0.541161 -0.362413 -0.549858 -0.170877 0.047834 0.188551 -0.423025 -0.078172 -0.415690 -0.319755 0.105598 0.505634 0.469147 -0.319807 -0.607873 0.314322 -0.098567 -0.066715 -0.565005 0.159314 -0.625824 -0.191041 0.166318 0.090219 0.256882 -0.107765 -0.141477 0.674205 -0.262939 -0.194036 0.111601 -0.636396 0.172614 -0.047814 0.359241 0.032518 0.795789 -0.235650 -0.515355 
w1370 0.135214 0.019775 0.834712 0.279095 -0.238438 0.415253 0.625781 0.163943 0.014078 -0.156486 0.062978 0.025842 -0.659055 0.211816 0.350757 0.492248 -0.064614 0.056178 0.021828 0.247297 -0.087909 -0.298258 0.533110 -0.254470 -0.087675 0.350822 0.265772 0.188396 0.207164 -0.207152 -0.501799 0.115660 0.233218 -0.422010 -0.061213 -0.079070 0.333258 0.041296 0.207763 -0.343198 -0.079249 -0.272313 -0.083470 0.031185 0.155380 0.651221 0.336437 -0.152575 -0.802670 -0.120689 
c310 -0.320405 -0.086203 0.434624 0.192640 -0.050482 -0.186618 0.425404 -0.063607 -0.265757 -0.333441 -0.160698 0.486828 -0.656357 -0.788453 -0.024475 0.452034 0.234060 0.201725 0.054537 -0.105565 -0.805221 -0.018438 0.312459 0.054130 -0.292483 -0.436160 -0.035900 -0.201178 0.004355 -0.497840 0.164029 -0.213930 -0.622628 0.131229 -0.118948 0.583636 -0.346106 -0.327510 0.772741 -0.583660 -0.435655 0.165980 -0.502262 -0.051103 0.455069 0.040052 0.232180 0.301342 0.192116 -0.151539 
w11756 -0.052869 0.029018 0.713375 0.234407 0.225373 0.151663 0.438116 -0.202060 0.153649 0.015826 0.047052 -0.356179 -0.565258 0.236756 0.221037 0.061303 0.078948 0.005974 0.114869 0.391925 -0.140750 0.169559 0.192469 -0.338563 0.088657 0.189432 0.192716 -0.288669 0.233207 0.013662 -0.185770 0.034300 -0.458342 0.147217 0.148007 0.320879 0.805706 -0.167268 0.016959 -0.134676 -0.403899 0.047014 -0.108256 -0.152892 0.177781 0.556897 0.088377 0.030436 -0.984852 -0.654633 
w298 0.378719 -0.012412 0.544677 0.080857 -0.003462 0.143572 0.424772 -0.307009 0.117505 -0.126244 0.167491 -0.380404 -0.575407 0.203900 0.367343 0.109109 0.269255 0.295259 0.194862 0.347734 -0.161421 -0.100366 0.109953 -0.236124 0.158380 0.055791 -0.075669 -0.115643 -0.028243 0.171510 -0.139946 0.165997 -0.381276 0.216419 0.145665 0.191775 0.556695 0.193723 -0.025607 -0.259020 -0.106389 0.236631 0.016736 0.211107 0.176470 0.632072 -0.135511 -0.015921 -0.469841 -0.778595 
